85 300
· 0.0010405324 0.0006964989 0.00094868307 -0.0013918864 0.0013725935 -0.0007287086 0.0013908542 -0.0002391646 0.00024361626 -9.44628e-05 0.0008548969 0.0011441677 -0.0007785426 0.0004990452 0.0014699941 -0.00046615754 -0.00016152948 -0.0007903523 0.0013883935 -0.0011802989 -0.00045088478 0.00016449612 6.637025e-06 0.0005044523 5.8822405e-07 0.0013659059 -0.0014469003 -0.0010343717 0.0012444315 0.00037075704 -0.001493584 -0.000545551 0.0003356854 -0.0016452302 0.0016267018 -0.0008325564 -0.00055301056 0.00024586762 -0.0014753205 -0.0013898541 0.00034606116 1.8931374e-05 0.0001493619 -0.0008979451 0.0010833973 -0.00055111485 0.0012331044 0.0002033614 -0.00066766184 -0.00020489121 -0.00042405556 0.0012911775 0.0013939844 -0.0012819879 0.0013472677 0.00043792016 -0.000979389 -0.0003369404 0.000722495 -0.00074288895 -0.0012749613 0.0012451999 -0.0006988351 0.0015205828 0.00029017482 -0.0007607082 -0.00031691548 -0.0009660951 0.0015190869 -8.144785e-05 -0.0006552735 -0.00041859495 -0.0008946221 0.0010679722 -0.0012226137 0.0014181858 -0.0014641949 -0.00011981612 0.00042753157 -0.0006935523 -0.0016477503 -0.0015336829 0.001008496 0.00048606592 -0.0008751592 -0.0010550393 -9.844168e-05 0.0006425116 -0.0008291265 -0.00031754267 0.0016072806 3.2539014e-05 -0.0015502711 0.0009246861 -5.2251155e-05 -1.7109744e-06 -0.0003432577 -0.0015092945 6.0366405e-05 -0.001337244 0.0009863579 0.00096568436 0.0010060741 -0.0012136848 -0.0016308025 -0.0005628938 -0.0008599658 0.00092533306 -0.0005420489 0.0005388944 0.00029367683 0.0009760563 -0.00034209216 0.00034219833 -0.0001942218 0.0015941457 0.000120296456 -0.0006433837 -0.00049772806 -0.0009782655 0.00010681976 -0.0008899068 -0.00036865292 0.00047012817 0.00073616393 0.0014272818 0.00048669797 -0.00014045053 -0.00021158563 -0.0009237069 0.0004994672 0.0012790859 0.00073430326 6.500029e-05 8.953139e-05 0.0010047702 -0.0012534445 -0.0016208644 0.0011718508 0.00014473527 0.00068917446 8.940645e-05 -0.0001980399 -0.0012460196 -0.0015967708 0.0008793411 -0.0004586749 -4.1664466e-06 0.00086910557 -0.0016229007 -2.8150009e-05 0.0014836725 0.0009206521 -0.0006715939 -0.00013255939 -0.0007194082 -0.00079297303 -0.00056198105 -0.0014455386 0.0012450776 -0.0014746621 0.00078793446 0.0009975249 0.0016237155 -0.0007804417 -0.00081114296 0.001443498 -0.0012917537 -0.00041913288 -0.001262433 0.0007333951 4.517922e-06 -0.0011275858 0.00068719964 -0.0012199356 0.001052115 -0.0015978315 -0.0011547098 0.001461761 -0.0014759455 0.00012293429 -0.00040074313 -0.00074529723 0.0010831942 -0.00043359323 0.0005853311 -0.0014186129 -0.0010135684 -0.00014883274 -0.00050885504 -0.0010974061 -0.001260276 0.00012054128 0.001357323 0.000305323 -0.0007231501 -0.00018840878 0.0012024 -4.806931e-05 0.000634972 0.0007682356 -0.00051898713 -0.0010310587 -0.0006399952 -0.00029616285 0.001534568 -0.00085094594 -0.0013751967 0.0014206119 0.0003550666 0.00028288405 0.0007573973 -0.0007718208 0.00019508891 0.00068643346 -0.0006016089 0.0013658626 -0.00024159756 0.0014968382 0.00032402758 -0.00092034735 -0.0010453605 -0.0016575978 0.00070298126 -0.00014251811 -0.0013085316 0.00070984976 0.00064291985 0.00025593807 0.0006383423 -0.00016419006 -0.00025349276 -0.0003021359 0.00059131917 0.0011756977 0.00027517023 0.001429962 -0.0014217468 0.0009546737 0.00088304636 -0.000618468 -0.0015559384 -0.0012391522 -0.00015130562 -0.0011278829 0.0004559595 -0.00018692683 -0.0011168085 0.00066119817 0.00033416372 0.0003772245 -0.00035314556 -0.00053642096 0.0011752669 -0.0011802941 -0.000992474 -0.00022893904 -0.0012557834 0.0011869003 0.0014021947 -0.00064943184 -0.0015206737 6.5693905e-07 -0.0013437495 0.00036204536 -0.00046108692 0.0013787101 0.0012781176 -0.0005319384 0.00062702334 -0.0014474096 -0.0003026733 -0.000999261 -0.0016352455 0.0012421479 -0.00065075106 -0.0013216521 0.0010608988 0.0009103122 0.0016130618 -0.00078000943 -0.00139424 0.0004557531 0.0011280994 0.0015671774 0.0014744188 0.0011096303 -0.00021522732 0.00035328587 -0.0012253526 -0.0010375157 0.00072603946 7.583691e-05 0.0009934016 -0.0007810502 -0.00088973454 0.0010378731 -0.00021344837 -0.0007937709 0.0013107919
支持王老师的策略：先自己站稳，静观其变，深挖洞，广积粮，缓称王。我们需要的是发展时间，与美国对等反击分散我们的精力和财力。应该是有原则有限度的反击。 -0.00077340973 -0.0014859462 0.00017758476 -0.0010937614 -1.0399596e-06 -0.0007352804 0.0016655928 -0.0010366184 -0.0008006859 0.0012992581 0.0006531464 0.0006434945 0.00044618046 0.0010497352 -0.0013808131 0.0005083502 -0.0007720644 -2.7078497e-05 0.001608146 -0.00012735084 -0.0006274318 -0.0009624574 -0.0008960928 -0.0005679402 -0.00044310326 -0.00037933915 0.0007889357 0.0013247991 0.00071514666 -0.0014759003 -0.0013989497 0.00033942875 0.0012512085 -0.0014311473 -0.0007378428 -0.0014358014 0.000541944 0.0010453823 -0.00065562915 0.001244809 -0.0006057137 0.00020679999 -0.0012577327 0.00044428205 0.0011612196 -0.0010683781 -0.0001744461 0.0014467244 -0.0012644364 -0.0014518785 0.000599044 0.0009340566 0.00065600785 -0.0008559676 0.00029698975 -0.0009240249 0.00036937682 -0.00049146236 -0.0015093427 -0.0012567913 -0.0009054765 -0.0011779869 0.00064485427 0.0010748999 0.0013743635 0.00036357425 0.0010393925 -0.0014699178 0.0012440362 -0.0016524881 0.0015362892 0.0011817493 -0.00039607813 0.00071820646 -0.0015732392 2.5010786e-05 0.0005302178 0.00016813996 -0.0010182081 -3.9162467e-05 0.00031647252 0.00038295484 -0.00085016096 -0.0010877263 -0.0004711082 -0.0005714991 -0.0012985471 -0.001141723 0.0014542635 0.0004599311 -0.000993709 -0.00084773573 0.0007030612 -0.001521544 -0.001451958 0.00029881747 0.00025212296 0.0015592555 -0.00095339183 -0.0009932014 0.0016355109 -0.0014351485 0.00073916255 -0.0015712474 -0.0007824824 0.0012606541 0.0015517282 -0.00026701833 0.0009660623 0.0012083321 0.0006444453 -0.00096113415 -0.00086965517 0.0015666964 0.0013559145 0.00027315656 -0.0010968064 -0.0010068712 -0.00040480605 0.0009289576 -0.00062412355 -0.00016462164 0.0014775089 -0.0009922171 -0.0010998447 -0.00084024516 0.0009526345 0.0004562989 -0.0007769667 0.0010229637 0.0014606299 -0.00062549673 0.0010070514 -0.0005347755 -0.0015051271 -0.0010539215 -0.0014636044 -0.0013013815 -0.0014922487 0.0016022688 -0.0010653277 0.0014860512 -0.0009708571 0.00095416093 0.0011328838 0.0006194484 0.0010128735 0.0011114208 0.0011572934 -0.00034372867 -0.0013714267 -0.00084280124 -0.0016459575 -0.0012775956 0.00041475703 -0.0004685923 -0.00072068564 0.00033508276 0.0012213838 0.0002048791 -0.0005620239 -0.0009304004 0.0004167012 -0.00049908936 0.0010668461 0.0003929927 -0.0007002821 0.0013050248 0.0015363392 0.0015291055 -0.00082059467 -0.00015728353 -0.001416402 0.00053535146 0.0014237793 -0.0015038355 9.711944e-05 0.001252596 -0.0003286309 0.0012172557 -0.00012396509 -0.00016206614 0.0011087416 -0.0010611154 1.5397007e-05 -0.0015951173 9.041209e-05 0.00082776276 0.0014166039 0.0011361958 0.00040856903 -9.0618625e-05 -0.00013078375 -0.0015797652 -0.0010253291 9.079052e-05 0.00039326248 -0.00037353937 0.0005551015 -0.00058587105 -0.001125926 0.0010400737 0.001320752 -0.00044810402 -0.0013004491 -0.0015216382 -0.0012242451 -0.0007424738 -0.0012359563 -4.6738056e-05 -0.001520554 0.00023407832 -0.0014610136 -0.0013356884 0.0014506505 5.3314136e-05 -0.001392619 5.5655724e-05 -0.00014030389 0.0006796327 0.0015581717 0.00012364023 -0.0007375915 0.0008448456 0.0015618852 -0.0016545082 0.0012569295 -0.0005531134 0.0008964348 -0.0016528879 -0.00015306153 0.00011393249 -0.001558903 -0.0010594823 0.0009867462 0.001320314 -0.0014771454 0.00034954937 0.0010632973 0.001236253 -0.0011644594 0.0013452354 0.0014085423 -0.0015113786 0.0004198802 -0.00014814206 0.0014072942 -0.0009684247 -0.0006159581 -0.0014513938 0.0014378589 -0.0005794764 -0.0012742225 0.0007257115 0.000112523696 0.0011273988 -0.00059772254 0.0016350496 0.0010508739 -0.0011620657 0.0015941686 0.00046466326 0.001200766 0.0005634163 -0.00071375695 0.00028207566 -0.0010467077 0.00037634867 -0.0009490369 -0.00029710642 0.00042867224 0.0015163484 -0.0005904745 0.0011083477 0.00062252406 -0.0013196642 0.00030646013 -0.00096458313 -0.00041271848 0.0006988153 -0.0003125883 -0.00013779166 -5.351934e-05 -0.00072222156 -2.497471e-06 -0.00010355788 -7.236414e-06 0.0006413759 0.0007398356 0.00029812648 0.0005615149 0.001340279 0.0012362668 0.000811334 -1.44377245e-05 0.0011648678 0.0006324631 -9.035185e-05 -0.00014123786 -0.000534608
两个老师根本对话不到一起。 -0.00014006098 -0.00038577596 -0.00068862847 -0.00036672404 0.001325284 -0.0002849615 -0.0013104309 0.00058362406 -0.00034634006 0.00076477526 0.000860452 -0.0004958464 0.0010421688 -0.00025363438 0.00021522402 -0.00012495747 -0.0008838551 0.0010945778 -0.0013556165 0.0010661646 -0.0001757804 -0.0009888717 -0.00034101424 0.0003534733 0.00091366767 0.0009497389 -0.00030712146 -0.0016203301 -0.0006396735 -0.00010705656 -0.00029135615 -0.0013764556 -0.00011659398 0.00048399458 0.000790966 0.0014574522 0.00043313968 0.00046335085 -0.0012055181 -0.0009941615 -0.0012943507 -0.0009851609 -0.0005211804 -0.0003532517 -0.0012227885 -0.0012047915 -0.0014166944 -0.00121272 -0.0009914688 0.00010986683 -0.0014896457 -0.00060785003 -0.0015206009 -0.0012758377 0.00012532822 -0.0003079462 0.0012538511 1.0557943e-05 0.00075745216 0.00048087677 0.00024755098 0.0013002761 -0.0001834748 -0.001120091 0.00038306054 0.0011657301 0.0002287326 -0.0016235077 0.0016482514 -0.00025047548 0.0009974086 -0.00044381706 -0.0005134001 0.00084683066 -0.00033617247 -0.0003347822 -0.0010035753 -0.0010274504 0.00043440328 0.00027941432 -0.001440401 -0.0007197764 0.001076616 -0.0008462297 -0.00088069093 -0.0003422952 -0.0013018204 0.00091712706 -0.0016206099 -2.8094535e-05 -0.0010909502 -0.001128177 -0.0011368428 -0.00142766 -0.001574137 -0.0016511 0.00043012347 0.00039970077 0.0010309687 -0.00017616106 -0.00026603558 -0.001467655 -0.0012837485 -0.0014513044 0.00026024974 0.0010796281 0.00057040085 0.0011263499 -0.00041144656 0.0011578096 -0.0015321597 0.00014877846 -0.0005496238 0.00066034705 -0.00086561806 0.0012478285 -0.0012148856 0.0010250709 -9.3713395e-05 0.0016312477 0.0010312333 3.190043e-05 0.0006993354 0.0011566895 0.0013679288 -0.00037842043 -0.0011318498 0.0014525516 0.0015875931 -9.783286e-05 -0.0010551765 0.0008781857 0.0005630769 -0.00046572456 0.0013718443 -0.001274785 -0.0010070048 -0.00048114653 -0.0005676054 -0.0014771279 -0.0006802777 0.0005450122 0.0005456641 0.0016083024 0.0015615508 -0.00090532494 0.00085449853 -0.0013730843 -0.00013766278 -0.0013903755 -0.0015484064 -0.00039909413 0.0002458878 0.00040397086 0.00013529781 0.0009976178 -0.00026131235 -0.0016632072 0.0010786995 -4.190097e-05 -0.000670271 0.0011768839 -0.0010104781 -0.001222922 -0.0015724654 -0.0009829423 0.0009670403 -9.334535e-05 0.00053183344 -0.0012397142 -0.0012916349 -0.0014416911 -0.00010996039 0.0015650461 0.0011092555 0.0013315118 0.0004234891 -0.0006129609 0.0005225906 0.000839364 0.00051349984 0.0007542558 0.00080640864 0.00093954196 0.0003461939 -0.00049761415 0.000910143 -0.0011306893 0.0016658864 -0.00018912683 0.00043174447 -0.0005914901 0.00080764067 -0.0015835338 0.00037107646 -0.00088574784 0.00042797535 0.0015786579 0.0012935444 -0.00047563264 -0.000617636 -0.00020959345 0.00015271656 0.00070047705 0.0013822232 -0.0011639037 0.0012732756 0.0012010266 0.0015900088 -0.00091993035 -0.0007524379 -0.00034844727 0.0014323101 -0.0006827104 -0.0009818729 0.0002936011 -0.00021309112 0.000355876 0.00020638174 -0.00013659381 -0.0010800534 -0.00140205 -9.972196e-05 -0.0006722229 0.0016054277 -0.0005366259 0.0012189161 -0.00041706476 -0.00084152963 -0.0010495267 -0.00031712736 0.00059860223 -0.0016183066 -0.0014043829 0.0012849483 0.0006339428 0.0016186652 -0.00073310843 -0.0011926073 0.0004599084 -6.0439976e-05 -0.001287329 0.0012493973 0.0009180736 -0.0009268671 -0.0014287864 -0.0014545172 0.00063258567 -0.0012822665 -0.0012525995 -0.0010179012 0.0014374051 -0.00014735639 -1.6384018e-05 -0.0014854689 -0.0008082888 -0.000790497 -0.0011937296 0.00069056044 -0.0016032393 0.0009926552 0.00033268123 -0.001562214 -0.00053082535 0.0005490325 0.00095456204 -0.0014577017 0.0012349425 0.0011943055 -4.1764557e-05 0.0006821686 0.0014400929 -0.0015016336 0.0014053188 0.0014243277 0.0008339511 0.001104068 0.00044759645 0.0012312924 3.0592728e-05 0.00095166534 -0.0010895177 -9.461509e-05 -0.0013557901 4.0217816e-05 0.00074415904 0.000983597 5.4618664e-05 -0.0015839668 -0.0012839902 -0.0012142832 -0.00045154337 -0.0007349144 0.00016415768 0.00011657484 -0.0007353602 -3.6956848e-05 -0.0011645752 0.00083903363 0.0013940465
主题方向不一样 -0.0005462345 0.001456039 -0.00035586327 0.0013238285 0.00107688 0.00013610141 -0.0015292628 -0.0016562592 -0.00074248837 -0.00033643842 0.0008579439 -0.0010729898 0.0015833157 -0.000775022 0.0015790471 -2.377542e-06 0.00034498164 0.0013811213 0.0007635377 -0.0012040025 0.00060436886 0.0015402564 -0.00022558008 0.0006771934 0.0013646319 -0.0016440158 -0.00013330717 0.0014735301 0.0015937088 -0.0006128238 -0.0015425241 0.0005235028 -0.00032342307 -0.00021116373 -0.0015880814 0.0007014746 0.0010327757 -0.00015380823 -0.0015148717 0.0009741636 0.0001954352 -0.0009390546 -0.00068824156 0.0005569195 0.0013884908 -5.135262e-05 0.00021589114 0.000771152 -0.0013511044 0.00081161887 -0.0010618055 -0.0010433873 1.6993074e-05 -0.00092854357 -0.0013213218 0.0007461557 -0.00085014256 -6.466702e-05 -0.0010831864 -0.0016618738 0.0012275138 -0.00063390663 -0.0016511297 0.0015271197 -0.0009344574 0.0014098822 0.00028581955 -0.0015698792 0.0009060654 0.001357965 0.0016539406 0.0010546643 9.898707e-05 0.0007054917 0.00012761107 -0.00028802114 -0.0013849939 0.00022667037 0.0005546841 0.00047811086 -0.0014144706 0.0015187328 0.00013794088 -0.00050478516 0.0003420573 -0.00064154767 -0.0016412039 0.00093904475 0.00050559465 0.0013776566 0.0007880842 0.00029002593 -0.00075751916 0.00013617685 -0.0016330848 0.0010580588 0.0009725971 8.481517e-06 -0.0010092402 0.0010859522 -0.0015282296 0.0016101642 -2.6917683e-05 -0.00045971177 -0.0012999588 -0.0005692544 -0.0015160607 -0.00091656466 -0.00058240583 0.0007403922 -0.0006704976 0.001245529 -0.001096239 -0.00017620237 0.0014131353 0.0014331952 -0.0010888953 -0.0006938256 0.0005283497 -0.0004558176 -0.0008000329 -0.00034663052 -0.000116093535 0.0016382996 -0.00011350974 0.001231053 0.0012810035 -0.0007713832 -0.00040849304 0.00025349986 0.0012287274 0.0016588903 -0.00013652659 -0.0016524593 -0.0015260035 0.0008477207 0.000531758 -0.0015402378 -0.0010365988 0.0013538675 0.0010297163 0.0005337673 -0.0009668474 0.0013702698 -0.0009909085 0.00035312196 -0.0014877811 0.0010990923 -0.0007474133 -0.00015012115 -0.00091549254 0.001232817 0.0015883648 0.0001178669 -0.0004769791 0.0013072812 5.1197247e-05 -0.0008097589 -0.0011094373 0.00015553963 0.00055150193 0.00083022175 -0.00022782646 0.0012726698 0.0012219937 -0.00013940103 -0.0011439995 0.00046579202 -0.0010942975 -0.00015242363 0.0011807223 -0.0009752109 0.001617939 -0.0013221357 0.00053052563 0.0014019159 -0.001646649 -0.00022659241 -5.2654446e-05 -0.0007267849 -0.0014416872 -0.0013032722 0.0010265594 -0.0009348337 7.520426e-05 0.00013696907 0.0015486011 0.0016471315 -0.0009947122 -1.9515612e-05 0.0014820863 -0.0006421706 0.00025079036 -0.0008367428 -0.000150191 0.0009608053 -0.0014317303 -0.0006193273 0.0011905108 -0.0011247694 0.00028503907 -0.00018905754 -0.0014460705 0.0011592137 -0.0008188059 -3.7774716e-05 -0.0016081135 0.000620184 -0.00045721148 -0.00010197399 -0.0014881956 -0.00070207176 0.0015293711 0.0010203572 0.0014259634 0.0007312648 0.00065922405 0.0009231995 0.001238594 -0.00091278506 -0.00043716078 0.0015282627 -0.000476467 0.0013305547 0.0014823992 0.0014227035 -0.0011285223 -0.00027743532 -0.0010931876 -0.001333595 -0.00011724693 -0.0008869032 -0.0013881985 0.001610943 -6.7052875e-05 0.0012278684 -0.00013344947 0.00093879463 -0.0006204161 -0.0011256328 0.0003377523 0.000995662 0.0008660955 -0.0006611495 3.5694142e-05 -0.0009401467 0.00033756252 0.00023136157 0.00039417396 0.0003101976 -0.0004316819 -0.0012309909 -0.00028973393 0.000781555 -0.0012338482 -0.0012414725 -0.00074984616 -0.0008873226 -0.0010936627 -0.000734271 -0.0016449115 -0.0005065462 -0.00037091918 0.00010171706 0.0011883301 -0.0008283184 -0.0014921111 -0.00087446976 -0.0013035863 2.6992879e-05 -0.0014854261 -7.98456e-05 0.00011107242 1.5253385e-05 -0.0005236646 -0.00092647446 0.0012899279 -7.276241e-05 -0.00019178928 -0.0010756243 0.0004251023 0.00066601747 -0.0010717772 0.0012162259 0.00010792753 -0.0010169601 0.00034471668 0.00093678635 -0.0011734074 0.00017395266 0.0010670045 -0.00038064615 0.00044146323 -0.0015811913 0.0013266206 -0.00059199607 0.001124948 -0.0005613259 0.0014180171 0.00040070573
加州独立了，疫情翻倍了，感觉真的低估了 0.00027176048 -0.0008871645 0.00057202205 -0.0009759439 0.00015155348 -0.0015785301 0.0012638808 -8.44929e-05 -0.00021703751 -0.0015710545 0.0010373225 0.0004176846 -0.00115774 0.0014560967 -0.00041994557 0.00095712085 0.00042531884 -0.0010507496 0.0009488959 0.0014478543 -0.00020259985 -0.00046806666 -0.0013323459 -0.0008043152 -0.00038612811 -0.0015474735 -0.00021767506 -0.00049733376 -0.0011497351 -0.00019271384 0.0008639123 -6.868278e-05 -0.0005832093 0.0016480742 -1.0914543e-05 9.353727e-05 0.00039884564 -0.00020468609 -0.0011529592 -0.00053691113 0.0009204776 -0.0007186225 0.0002361816 -0.001340145 0.0009149035 -0.0009461689 0.00032040037 0.0005718741 0.0015852017 -0.0008071032 -0.00059848704 -0.001663828 -3.3816563e-05 -0.0014504849 -0.0013449307 0.00070490106 -0.00043642567 -0.0013588837 0.00019756108 -0.00013271904 0.0011043015 -0.00051817036 7.097606e-05 0.0014066414 0.00095386454 0.0012219843 -0.0014655476 0.00042954014 -0.00016176312 0.00011894781 0.0012916868 0.00056538824 0.0010307481 0.0005446444 0.00021652496 0.0011836354 0.0013987019 0.0008229622 -0.0016435788 0.0005386176 -0.0003518174 -0.00027304818 -0.0015454321 -0.00090791273 -0.0007304844 -0.0016536369 0.001540699 0.00051184575 0.0016619306 -0.0010555972 -0.0007417048 -0.00017733283 -0.00084520545 0.0013289383 -0.00092666526 0.00045712807 -0.00054730155 0.0012980768 0.00041540051 -0.00017904928 -0.0005468847 -0.0010625402 6.295359e-05 0.0010494537 -0.0014523865 -0.0004698233 0.0011483401 -0.0005988476 0.0005058718 -0.0003709446 0.000367713 -0.0014986498 -0.0005894174 9.9845645e-05 -0.0012201322 0.00039261612 0.0009513513 0.0011718427 -0.0016232755 0.0015606149 -0.00010617998 -0.0012811089 -0.0002132376 -0.00027849362 -0.00016428181 -0.00092450756 -0.0015705626 0.0011575335 -0.00047649434 0.0007430859 0.00011362661 4.0243893e-05 0.0008489262 -0.00093512615 0.0014961496 0.00068514165 -0.0016524751 0.0003853603 -0.0013309343 0.00020820067 0.0011158442 -3.184629e-05 0.0006803792 -0.0012948094 -0.0011966709 4.2224303e-05 -0.0007761043 -0.00086917897 -0.0014262644 0.00010351203 -0.00046502985 -0.0006394887 -0.00075996015 -0.00070251955 -0.00019472314 0.00031476092 0.00077606377 -0.0012544546 -0.00014024947 -0.0010103731 0.0014460663 0.0010064293 -0.00057375105 -0.0013144938 0.0012609382 0.0010047171 -0.00051146623 -8.6906366e-05 0.0011704502 -0.001476633 0.0014924078 0.00073039683 0.00060391775 0.00021035742 0.0002808878 0.00096713006 -7.482367e-05 0.0007256406 -0.0010571029 0.0002447406 0.0003459787 -0.00066167826 0.00063017965 0.00053361355 -0.0015855655 -0.0011471558 -0.00085942727 0.0014715526 0.0016488923 -0.0015059239 0.0011560794 0.0004423889 -0.0005047366 0.0015675919 0.0015331095 0.00035553094 -0.00021810616 -0.00018831203 0.0010512582 -0.00051942765 -0.00023439388 -0.00010794176 3.708057e-05 -0.00054645905 0.0010545941 0.0012876058 -0.0015883122 -0.0014763053 -0.0004572056 0.00015209048 -0.001477832 0.0006411681 -0.0012333641 -0.00082983484 0.00016962687 -0.0008136315 -0.00013460967 0.0009400818 -4.9943363e-05 0.00022456392 0.0010836899 0.00097183516 -0.0014674399 0.00087425637 -0.0009885686 0.0011225757 -0.0005551064 0.0003418912 -0.00024288324 -7.0506074e-05 0.0008512111 -0.0014625812 0.0012066234 -0.0006212994 0.00074469915 -0.00048964826 -0.0012050351 0.0010417585 0.0008218178 0.0005557385 -5.387109e-05 0.00023054374 0.0011322773 0.0016159432 0.0014103972 0.00057658093 0.0015204531 -0.0015169359 -0.0011249834 0.0013260548 -0.0012868806 -0.00044352107 -0.0009434167 -0.0009866393 -0.0012354001 -0.0009202243 0.00011726821 -0.00045333485 0.0012552509 -4.1370182e-05 0.00017937204 0.0012457944 -4.3409367e-05 0.0002977009 0.0009936999 -0.00087256 0.00053780497 -0.00053374405 0.0009735732 -0.000276166 -0.00017006426 9.025672e-06 -0.00018099771 -0.0009991411 0.0010795988 -0.0013024379 0.00028896442 0.0010112444 -0.0010224817 0.0008829712 -0.0010301294 -0.0009572883 -0.0016075092 0.00041401925 -0.0013873602 -0.00040115768 0.0015332331 -0.00077940855 -0.0006297721 0.00046142036 0.00068682514 0.0011123591 0.0010211505 8.618502e-05 0.0015078911 -0.00025618848 3.89655e-05 -0.0008242383 -0.0015888318 -0.0005093635
我有一句牛B,不知当不当讲.[doge-圣诞] 0.00032104875 0.0003793287 0.0006317531 0.0010170401 0.0015264777 0.00037534419 0.00014262368 -0.001137786 -0.0005579804 -0.000542302 0.0013893367 -0.0010302268 -0.0015398085 -0.0009711107 -0.0016176715 0.00092970394 -0.000322726 -0.0013330308 -0.0015760547 -0.00072405377 0.00017888854 0.001422807 0.00032144648 0.00033126937 0.0007623744 0.00087024586 0.00039447943 -0.0012778098 -0.00021637451 -0.0010326687 0.00056735374 0.0014245716 -0.0012477242 -0.0009471403 0.00071156264 -0.0010203727 0.0016105727 1.6655395e-05 -0.0015446978 0.0012686887 0.0010793175 0.00047617723 -0.0016538382 0.0007611459 -0.0007967742 -0.001125871 -0.0013416294 9.62183e-05 0.0011103451 0.0008377036 -0.0016590004 0.0007734707 -0.00011836749 0.0009907712 -0.00010835527 -0.00069053046 -0.0012185517 0.00016168946 0.0004312159 -0.00020376642 0.00024894005 0.00057164213 -0.00081215316 0.0006941698 0.000703167 7.5225325e-05 9.172546e-05 0.00024486613 0.00033400694 -0.000814422 -0.0002485151 -0.0014904169 -0.00072136754 -0.0016522582 -0.00071966846 5.6975096e-05 -0.00025585192 -0.00029495734 0.0010836467 0.0009731213 0.000920597 0.0008662721 0.00041465322 -7.539965e-05 0.0004407668 -0.0015232012 0.00018545757 -0.0012699199 0.00024024514 0.0007548463 0.00043875698 -0.00038392394 0.0007851759 0.00016791733 0.001426003 -0.00030340502 -0.0015053131 3.664507e-06 0.0001861997 -0.0016428247 -0.0015728675 -0.0014093003 -0.00070160313 5.8827412e-05 -0.0002908769 0.0010639952 -0.0012337287 0.001510507 -0.0004964816 -0.00046219415 -0.00080659665 -0.00010199241 0.001651087 -0.00076582236 -0.0016274817 -0.0016343889 -0.0007905936 -0.00020558179 -0.0012924091 -0.001014775 9.093466e-06 -0.00024259607 0.0007740189 0.0010837795 0.0011632792 -0.0015711486 -8.152636e-05 -0.001412198 0.0010315459 -0.0016293593 -8.965168e-05 -0.00070880144 0.00012208335 0.00014648052 -0.00047961346 6.748021e-05 0.0007750707 0.0005456212 0.00037001376 -0.0015319 -0.0013117372 -0.0013411844 -0.001037879 0.00071423163 9.681222e-05 -0.0009624989 0.0003620967 0.0007546227 0.0006533014 -0.00064062397 -0.0010158352 -0.0007581342 0.0003308992 0.001655286 0.0010520119 0.0007960147 -0.0013092957 0.0011441947 0.0016275999 0.00065743626 -0.00093379756 0.0011818572 0.00090951833 0.0006327137 0.0006187949 0.00129611 0.0013375768 -0.00039693108 -0.0005979663 0.00068609114 0.00022440328 -0.0015488967 0.001544347 3.3294724e-05 0.00024035735 -0.0008821859 0.00019718225 0.0009983508 0.00061958993 0.0011143845 -0.0011487388 0.0007274009 0.00092590135 -0.00019287273 0.0005536615 0.00025038616 -0.0012794464 0.0004106255 0.0015677587 -0.0009526824 -0.0010887542 0.0012376965 0.0016062387 -0.0006108779 0.0015293424 -0.0006533706 0.00071096304 -3.1895575e-05 -0.0010376618 0.0015780127 -0.0016644277 0.0009937151 -0.00079441746 -0.00019681799 0.0009566869 0.001521851 0.00022455417 0.0016197611 0.0016631797 0.00039530933 0.0015395896 0.0009141149 -0.00082558783 0.0014344106 2.480976e-05 0.0011371057 -0.0013371572 -0.000934363 0.00044905426 0.0014433427 0.00053545187 0.0005992658 0.00073445146 0.00039551468 -0.0005925986 0.0014425747 -0.00053368043 0.00026320203 0.0014992387 -0.0012092392 0.000531234 -0.000533092 0.0013145598 0.0009137782 0.0007834821 0.0013444492 0.0005456099 0.00077219325 0.00047244885 -0.000776742 -0.0012584272 0.0011060017 -0.0013993839 0.0006643103 -0.00046106442 -0.0006478568 0.0006989045 -0.0009853204 -0.00013484107 -0.00090253813 -0.00022533681 -0.0013714681 0.0013206431 -0.0014877314 -0.0015768498 -0.00070409774 -0.00088459294 -0.0014378116 -0.00046872572 -0.000637629 -0.0005212757 -0.0016148362 0.0014386238 -0.0011217347 -2.6052247e-05 0.0016140077 -0.00087194226 0.00057146675 0.001015073 -0.0012954526 0.0010969047 7.152574e-05 -5.028916e-05 -0.00055979105 0.0010693826 -0.00073763693 0.00093353185 0.00046344625 -0.0014010181 -0.000764498 0.0014379019 0.0012231375 -0.00025688086 0.0009083295 0.0011290521 0.00030237902 0.0006153342 0.0012611437 -0.000977686 -0.00023659601 0.0014623208 0.0016366629 -0.0014812835 -0.0015677522 0.001288824 0.0012260403 -0.00070653186 0.00020770343 0.00067522115 -0.0015408869
要用魔法来打败魔法[吃瓜-圣诞][阴险][阴险] 0.0006834615 -0.001056303 0.00030269774 -0.00085669896 0.0009315323 -0.0011828922 -0.00013416405 0.0012304485 -0.0014171575 -0.00048763712 -0.0014424765 0.00027173356 0.0008944547 0.0014127452 0.0013474935 0.000392102 -0.0012156704 -0.0009190146 -0.0013806638 0.00029849252 -0.0012359447 0.0009542425 -0.00096958695 0.00087272725 0.0016625786 0.0007670235 0.00031339354 -0.0005571847 -0.0007084868 -0.0016144543 -9.1471025e-05 -2.1256112e-05 -0.0013728319 -4.0334096e-05 0.00046789675 0.00071050314 -0.0011266063 -0.0004673258 0.00018207051 -0.0015782668 -0.00029658587 -0.00013696591 -0.00029931407 -0.0014748932 -0.0011482143 0.00088978646 0.0016502229 0.00025794955 0.0015558591 0.00013323383 0.00072137115 0.001442524 -0.0007334742 0.0016423622 0.0006820778 -0.0012940551 -0.0011504808 0.0002899423 -0.0013868203 -0.001317168 0.0005468336 -0.0010305305 0.0009637763 0.0014503951 0.0014653273 -0.00035760485 0.00053336 -0.0010804082 0.0008619047 -0.0013990497 -0.0011243713 -0.0005875229 0.0011429894 -0.0004715695 -0.0009917716 0.0013238918 8.487501e-05 0.00049310765 0.0012133687 -0.0008374746 0.00030292736 -9.442216e-05 -0.0014034982 0.0006632255 0.001556875 -0.0016061936 0.0011334505 -0.00045732156 0.0009768571 0.00044104745 0.00014132174 0.00048722402 -0.0015268408 0.0013019446 0.00018087203 -0.0011580257 -0.0001443299 -0.0010309062 0.0012359356 0.0012004783 0.0007219866 8.6232285e-06 0.0015900184 0.0007974832 -0.0011144296 0.0007367596 -0.00037322266 0.0012944178 0.0009037925 -9.725766e-06 0.0012052702 -0.0005442153 -0.0009097276 0.0005091431 0.0011563762 -0.001035304 0.00068935374 -0.0010353761 -0.0001846566 0.0015303893 -0.0007249187 3.6617887e-05 -0.0005877049 -0.0011123838 -0.00029628212 0.0005583495 0.00020066662 0.0014716404 -0.00047983424 -0.0012425156 -6.374752e-05 2.251848e-05 0.0008664219 -0.0001296654 -0.0005990283 -0.00077713624 -0.0014660291 -0.00060479285 -0.0008008567 -0.0006709618 -0.00064784905 0.001367988 -0.0015404555 -0.0010721192 -0.0001467632 0.00054490095 -0.00082728924 -0.00063679053 0.0006709201 -0.000685069 -0.0011675324 -0.0008266528 -0.0007178717 0.0006279791 -0.00069332286 0.00070702523 -0.0011681478 -5.672682e-05 0.0012103182 -0.0005263651 -0.0014869502 0.0007636931 -0.0010180771 -0.0015711952 -5.674997e-05 0.0009119726 -0.00015875997 0.00054122787 -0.0015647913 0.00019533659 -0.0014549294 -0.00019909005 0.00077348645 -0.00049467327 0.0013252159 -9.9867844e-05 0.0005989368 0.00058202085 -0.0015591326 -0.00045005584 -0.00036497082 -0.0012276387 -4.7034704e-05 0.00014961316 0.0014120038 -0.0014618087 0.00013910155 -0.0011150653 -0.00036257785 0.0001711793 -1.7622558e-06 0.00027632614 0.0004992468 -0.00080086116 -0.00056890334 -0.0004492278 0.00021656237 0.0014879202 0.00028562866 0.001114986 0.00082228053 -0.0014834675 -0.0016368096 0.001241956 -0.0005523259 -0.0006942039 -0.00097431365 -0.0014499568 -0.0008165709 0.00083089794 0.0013890391 -0.000514895 0.00019691752 -0.00088483014 -0.0013231195 0.0014380013 0.00032879852 0.0005080293 -0.0013463984 -0.0006240891 -0.0013951982 0.00094483816 -0.0014854929 0.0016429103 -0.00087131484 -0.0004522405 -0.0015992819 -0.0010647567 -0.00093016506 -0.0010007113 0.001608424 0.0003917949 -0.0008800907 -0.0011309776 0.00018372021 0.0016371936 0.00083073764 0.001463664 0.0010716334 -0.0006290801 0.00062869303 -9.9742996e-05 0.00015066941 -0.0006163098 -1.1760509e-05 -0.0015849901 -0.0008033999 0.0007255002 -0.0013090118 -0.0015984934 0.00080179016 0.0011690976 -0.0011806627 6.532274e-05 -0.0002730756 0.0008771141 -5.2780822e-05 -0.00044732404 -0.0012121252 -8.203838e-05 -0.00021816528 -0.0012730276 0.00013931107 -0.0009770261 -0.0009770687 0.0007347802 0.0012445196 0.0010176527 0.0015113687 0.00029117838 0.0008399459 0.0007018717 -0.0005237153 0.0011063259 0.0004986326 0.00065713667 -0.0010590967 0.0008093191 0.0001626898 0.00032502384 -4.5274275e-05 -0.0012560982 0.0010094388 -0.0008243929 -0.0010775526 -0.001339826 -0.0014161193 -0.001293765 0.00043711843 0.00018603922 0.00033868718 0.0011575214 0.00084264163 0.0014060816 0.00075298344 0.0012072962 0.00042093432 0.00052452256 -0.00054102094 -0.0014290998
听巨佬课上瘾，无法自拔，我大学时代上课都没这么认真过！ -0.0011488474 -0.00032171822 0.00025757175 -0.0014788387 0.00013506651 0.0006572137 0.0014300965 -0.0013280076 -0.0010225553 0.00018702558 -0.0016393038 0.00034504966 -0.0016042442 -0.0008743369 -0.0012960467 0.0006166797 0.00094928406 0.0010268395 0.00058522285 -0.0014501765 0.0010281374 0.0013955367 -0.00012144728 0.0014756612 0.00028132956 2.0894302e-05 -0.0014641404 -0.0003625721 0.0016299706 0.00091750076 3.2425298e-05 -0.0012102093 -0.0007546829 -7.134778e-05 -0.00042475126 0.00088614185 2.2778963e-06 0.0015720933 8.459195e-05 -0.0009975879 0.0015949737 8.54301e-05 -0.00037688302 0.0003389 -0.0012643608 -0.0003422823 -0.0007993432 0.0009117223 0.0014182526 -5.85688e-05 0.00060926133 0.00042847023 0.0005770059 -7.366954e-05 0.00055769715 -0.001468507 0.0006775412 -0.000673657 -0.0003236121 0.0009803972 -0.0007196959 -0.0008517677 -0.0011371997 -0.00062437204 -0.0002816159 -0.0011132262 0.0011491438 0.0011502771 0.0015787742 -0.0011351382 0.0011194824 -0.0001390534 -0.0015154609 -0.0014288549 0.00029290732 -0.00053929037 0.00029283893 0.0009830206 -0.00064972753 -0.00014161508 -0.00054930267 -0.0014017317 -0.0003687146 -0.0004984258 -0.000512027 -0.0016087639 0.00044849922 -0.0012129649 -0.0013858918 0.0010320969 -0.00040586138 -0.00041246624 0.001395577 0.001322644 0.0007492497 0.00019363248 0.0002954455 -6.375952e-05 -0.0007416309 -0.0015554347 0.0003798994 0.0004219931 0.0003652996 -0.0004497406 0.0006257767 0.00031962426 -0.00042422052 -0.00012707878 0.0011026206 -0.00047138066 -0.0013479542 0.00017845319 0.00081233727 0.00152186 -0.00085645594 -0.0011412363 0.0009353064 0.00022086724 -0.00039842143 0.0008749596 0.0010150654 -0.0011782127 -0.0006740403 -0.00026766217 -0.0014472452 -3.4888722e-06 0.00041450965 -0.0008075946 0.00040524462 -0.0007183478 0.0005379112 -1.7257551e-05 0.00026967633 -0.001527288 0.00016665462 0.0015128738 -0.0013962355 -0.00089461467 0.0005697619 0.0007390478 -0.0008708583 0.0014916959 -0.0011291434 -0.0004995194 -0.0011836555 -0.0010882432 0.00030520718 -0.0011425749 -0.0009060191 -0.0006733922 -0.0006122709 6.700469e-05 -0.0006320888 0.00015746168 -0.0013646088 -0.0015802875 -0.00012931929 -0.001583696 -0.0013721959 0.0014692025 0.0013580748 0.0010351699 -0.0008141106 -0.001475245 -0.0012003058 -0.0013452546 0.000602886 -0.0012620029 0.00092713145 -0.00070896966 0.00073815824 0.0012675462 0.00089337485 0.0014887276 -0.00041978038 0.0016660689 0.0016200909 -0.0016142976 -0.0007576157 0.0008923434 0.0009286343 0.0015446299 -0.0014465443 -0.00066655246 0.00012760551 0.0010052448 0.0016147969 0.0014668258 0.0009495921 0.0013560532 -2.808259e-05 0.0010310812 -0.00030892706 0.0007051004 0.00077305763 -0.00039171393 -0.0010478047 0.0012392916 -0.0013225417 0.00033523305 -0.0009869677 -0.0009829951 0.0012011199 -0.0005125257 0.00012771972 -0.001650882 0.0004854068 0.00083832984 -0.00044795626 -0.0009249662 0.0010029356 0.00027601846 0.001019381 0.0011567471 0.001512257 -0.0014186938 0.0007671788 -0.0014509299 -0.0009681891 -0.00020623347 0.0012426208 -0.001355645 0.0005321486 -0.0011681583 -0.0006052516 -0.00069175626 -0.00079964596 0.0015185846 -0.0013217477 0.00050627574 -0.0005311155 -9.8179e-06 0.00053595315 -0.0015630141 0.00034324077 -0.00014677084 -0.00014139074 0.00042269277 0.001547095 -0.0010484435 0.0015488416 0.0012678189 -0.00029256617 0.0010720585 -0.0003502971 -0.0005186919 0.0010604525 -0.0013986651 0.0011263634 0.0006223076 0.001248717 -0.0014900491 0.0014812208 0.0010405089 0.0005345639 0.00023334818 0.0007224565 -0.000226925 -0.0012834007 0.00090555765 0.0015366484 -0.00039312875 -0.0012599818 -0.000474647 -0.00044605325 -0.001203008 0.00046389972 0.0007007103 0.0014557465 0.0015189381 -0.0011283034 -0.00010394665 -0.0014589588 0.00013368059 0.0009998633 -0.00086965156 -0.0008838511 0.0011579094 2.1458087e-05 -0.00070940837 -0.00059509877 -0.0015517625 -0.00034211317 -0.00051226374 -0.001203137 0.00012535667 -0.00045511103 0.0012495931 -0.0002926701 -0.0016030608 0.0011698772 -0.0007529677 -0.00021411636 -0.000769289 0.0008938665 -0.0012410765 -0.0011438273 0.00013794182 -0.00071692636 0.0012195313
恰了十三分钟视频，[OK-圣诞][OK-圣诞] 0.0015308245 -0.0005728591 0.0014010372 0.0006454854 0.0010494143 5.9175563e-05 0.0011121974 8.0361795e-05 -0.0014875378 -0.0016183008 0.00064952846 0.0008472595 -0.0012033773 -0.0015768496 -0.0009037308 -0.00030291438 -0.00049682136 0.0016331528 0.00047442765 -0.0007310446 -0.00044786726 0.00025185096 0.0005759655 -1.746142e-05 -0.0012243644 -0.0004509169 -0.0015852595 0.0013870836 -0.0014700213 -0.00015263086 0.0001518981 -0.0005751633 -0.0009488621 0.0008474508 0.000422027 -0.001577128 -0.0012317017 -0.0013667323 -0.0005885265 0.0014252706 0.0005853508 0.00064635143 0.00060140516 0.0012612648 0.0014658774 -0.0009768043 -0.0012789858 -0.00158656 -0.00031977208 0.0012827315 0.0008178552 0.00066383346 0.001005363 0.00027024208 -0.00057402125 -0.0011364605 -0.0010171364 0.0005266748 0.0004025354 0.0010300651 -0.0012256204 0.0010353506 0.0007704332 -0.00021418396 0.00072542555 7.80949e-05 0.00073725055 0.0006228138 5.3912438e-05 -0.001602386 0.00023047347 0.0013640061 0.0014307807 0.0005404558 0.0007337618 -0.0015291511 0.0013166093 -0.0012563281 -0.0012689319 0.0007784342 0.0013358286 0.001048244 0.0008878692 0.0012312043 -0.00024359564 -0.0004860757 -0.0003449607 -0.0011405015 0.0007642704 0.0013333575 -0.00084059394 6.472237e-05 -0.0016155608 -0.00066083856 -0.0009866045 -4.7468166e-05 -0.0005061022 -0.00024939657 -0.0011997193 -0.00037314944 -0.0005539817 -0.0015548593 -0.0011102563 -0.0004118695 0.00039877766 0.0006979225 -0.00090665114 0.00046286115 -0.0012983863 -0.001235133 0.0010574571 -0.0005820836 -0.0013989514 0.0007443551 0.00027613665 -0.0010185213 -5.0677056e-05 0.0010834031 0.00065187324 -0.00015300153 0.00045735334 0.00087688107 0.0010729509 0.00013255954 0.00090396375 -0.0014066441 -0.0011130173 -0.0015948244 0.00071694155 -0.00017814565 -0.0007842391 0.0014254127 0.0011246665 0.0007317818 0.001199711 -0.0010029086 -0.0005726282 3.5699835e-05 0.00094189256 -0.000802868 -0.00057361723 0.0004038083 0.0011773957 -0.0016476209 -0.0008381461 0.0014785322 0.0016303142 0.0012209194 -0.0003772529 -0.0013922242 0.0007559313 0.0013247154 9.648585e-05 0.00023285778 -0.00031218017 -0.0015918372 0.00018600046 0.00044655064 -0.00048153193 0.0015116645 0.001255986 -0.0015421187 -0.0005813124 0.0013316345 -0.0004015048 0.0012978306 -0.0014634546 -0.0011499426 -0.001453117 -0.0009622172 0.0004037438 -0.00042710704 -0.0007119783 -3.787174e-05 -0.001496895 0.00088986906 0.00046397757 -0.0013159382 -0.001068036 -0.0015012926 0.0004359538 -0.00038459332 -0.00082022283 0.001481663 -0.0009736852 -0.001447745 -0.0006488755 -0.0009446723 0.0006174712 -0.0006973494 -0.00018126094 0.0013837313 -4.7328685e-05 -0.0014559114 -0.0010876379 -0.0006034721 -0.0006861971 -0.00042682572 0.001649584 0.00010878303 -0.00074834214 -0.0014146088 -0.0009956774 -0.0003738217 -0.0010302096 0.00073910126 -0.0013847797 -0.0014568887 0.0006632165 0.0010462987 -0.0004528815 -0.00081449107 -0.0006033588 0.001294521 0.0013986453 -0.0008142667 -0.00011622482 -0.001335604 0.00027471 0.0008497203 0.0014700871 0.00082835933 0.0004039292 0.0012646466 7.218001e-05 0.0014861954 0.00017439439 -0.0015805374 0.0015909539 8.694e-05 0.0014303849 0.00013728256 0.00051154447 0.00023211568 -0.0008976346 -0.0011754214 -0.00048878865 0.001278154 -0.0011376805 -0.0015794935 0.0015799757 -4.3615895e-05 0.0013572517 0.00010921039 -0.00014581563 -0.0006682634 0.0015581824 0.0013082526 3.1147807e-05 0.0006794381 -0.0011997605 0.00090466737 -0.00017827425 -0.0011561642 -0.0010659716 4.063901e-05 -0.00089371274 0.00051443663 -0.0005447985 0.00046826308 0.0009050445 -0.0012259067 0.0016325553 0.0012665339 -0.001457311 -0.0010890387 0.0009889234 -0.00080536545 -0.00031326825 -0.00091259554 0.00014514373 0.00055489107 -0.0001723933 -0.00060889864 0.00026464515 -0.001546005 0.0016275421 -0.00055258867 0.0016127381 0.0012710382 -0.0011139492 -0.0005791248 -0.0009309566 0.0010175165 -0.0014068043 0.0010279879 0.0012957705 0.0014653995 -0.00073651865 -0.0013266004 0.0011989858 -0.00086170866 0.00088301284 0.0010407749 -0.0008805467 7.6438846e-05 -0.00062063 6.2164276e-05 -0.00040201188 0.0008848245
陈老师最让我喜欢的地方就是敢于论断，不怕打脸，暴论也要论。 -0.0013023453 0.0012842059 0.00039814648 0.0011536787 0.001073022 0.0015932966 0.00096504035 0.0014030045 -0.001001319 0.00092767243 0.00079950393 -0.0003032734 9.34585e-05 -0.0015170358 -0.00010834892 0.0009321888 0.00018570827 0.0006725404 -0.0005991373 -0.00070147647 0.0013071767 -0.0011743236 -0.00065665855 -0.00093161926 -0.001652396 -0.00073882786 -0.00060901645 -0.000852571 0.00064562465 0.0013162695 -0.00028784203 -0.0002978069 -0.0010147272 0.0010421141 -0.0012982845 0.00016037769 -0.0007148073 -0.00023479004 -0.001507193 0.0016325718 0.00054031145 0.0003130573 -0.0007875472 -0.00042663314 -0.0006899651 -3.8169255e-05 0.0006097504 0.0010314393 0.0013236407 -0.0016601821 0.00022778938 0.0006320886 0.0010715503 -0.001428927 -0.00061558204 -0.00016142447 0.0011655949 -0.000915792 0.00071509567 0.0015088441 -0.0009486634 -0.0015674132 -0.0014831318 -0.0010041423 0.0011709621 -0.0014748961 0.00037845728 -0.0013747183 0.00023895403 -0.0014743151 -0.0010997482 0.0010383558 0.0007794189 0.0013105802 -0.0006072074 -0.00010811384 0.00087943574 -0.00035542814 -0.000292192 0.00018207963 -0.00045123635 -0.0010085513 0.0004469064 -0.0004317334 -0.0013430779 0.00030785278 -0.00036395734 -0.0013858575 -0.00049441034 -0.0005892771 -0.0003437319 -0.0008392943 -0.0010532561 0.0005309226 0.00042922102 -0.00095122005 -0.0011898025 0.00056883035 -0.0012756039 -0.0010604803 -0.00096615526 0.00051399856 -0.0013255987 -0.00025266784 -0.0015880583 -0.0013229422 -0.00020890552 0.00042376068 -3.802421e-05 0.0010134415 -0.0014807642 -0.0013640444 -0.00041151757 0.0004613447 0.0012647145 0.00069690146 0.0013528913 0.0009908142 0.00084381655 0.001388347 -0.00025741637 -0.0011529882 -1.263979e-05 -0.00044634473 0.00093168626 0.0009866094 -0.0015401322 -0.0006604934 0.00022926132 0.0015903984 0.0010922143 0.00057168683 0.0005128639 -0.000173777 0.00086862926 0.0009408497 -0.0004386334 -0.00040858838 0.0006061959 -4.4911772e-05 -0.0004474987 0.0002880748 0.0013890873 -0.0015672012 0.00042231535 -9.4861636e-05 -0.00097340834 0.0010698092 0.0012564195 -0.0007861518 -0.0007947149 -2.8053682e-05 0.0011041856 -0.0004726294 0.0015955415 -0.0015872198 0.00021119473 0.00086361624 -0.0007608073 0.00046334782 -0.001614211 -0.0007442988 -0.0007991515 0.0014364526 0.0003241562 0.0010686627 0.00068019266 -2.9855248e-05 0.0009129571 -0.0015367393 0.0014706347 -0.00094618637 0.0012650816 0.0015639614 0.0008421895 -5.1043626e-05 -0.00053846557 -0.00097075757 0.0015205968 2.1823025e-06 -0.0005843152 -0.0013407439 -0.0003023569 0.0008169591 0.0009608393 0.0014664134 -0.0012358853 0.00050312985 0.0016289445 -0.0015156454 -0.0008879181 -6.784151e-05 -0.00066356466 8.086485e-05 0.000159538 0.0011880022 -0.00036508922 0.0004834634 -0.00079256675 -0.0013728809 -0.0015537291 0.0004208086 2.8143175e-05 -0.0014147576 0.0014918075 0.0008338721 0.00023480163 -0.0011293318 -0.0016010532 -8.831527e-06 0.0014243452 -0.0014250238 -0.0015002033 0.0011054204 0.00018583589 0.00039721618 0.00034497338 0.000551093 0.00017738075 0.00015639006 0.0010040416 0.0005280168 -0.00048701305 -0.0012823758 0.00050826225 0.00021769913 0.0014371745 0.0014271206 0.0004288254 -0.0013415007 0.00013281239 0.0010603953 0.001207182 2.3582583e-05 0.00082060724 0.00040021108 0.0009865738 0.0002702883 -0.0008525917 0.0009228084 0.0011476836 -0.0005686413 -0.00048455558 0.00036491765 -0.00081964425 0.00037798687 -0.00060096243 0.0007366156 0.00031337258 0.001560554 0.0003079042 -0.0008705951 -0.001343964 0.00071746734 0.0010832865 -0.0015516895 0.00078288186 0.0011110349 -0.000542931 0.00017084081 0.00064091437 0.0013865244 0.00082374027 -0.0008775587 0.00093415205 0.00088176515 -0.0010938484 0.0006168195 -0.0002668204 -0.0014819192 -0.0013225301 -0.0012917907 0.001576534 0.001166959 1.0048044e-06 0.0003345096 -8.714313e-05 0.00020713342 0.00047352817 -5.1104784e-05 0.0009165161 0.0014950227 -0.00086305256 0.0012540093 -8.262991e-05 0.00095053547 0.00030413506 0.00094754406 0.00012629102 -0.0009686426 9.96616e-05 -0.0011759585 0.0009017054 0.0011766356 -0.00082237326 0.00072367105 -0.0010852638 4.433142e-06 -0.00062100904 0.0007654245
王老太慎重了，不太争的感觉，不敢轻易论断我认为很有可能会xxx 0.00017765205 -0.0007150333 -0.0014928686 0.0005071061 -0.00082596496 0.0011005375 -6.7783534e-05 0.00034686588 0.00034398673 -0.0003530689 -0.00076181896 -0.0016305165 0.0014360829 0.0014844459 -0.00045722196 0.0011965067 0.0016521676 0.0008672593 -0.001416476 0.0014211048 -0.0011890315 0.00021558294 -0.0012881813 0.00097510696 -0.0009807488 -0.0010223831 -0.00050022575 0.0016576892 -0.0005460495 -0.00043346727 -0.0011890237 -0.00075112033 0.0014568574 -0.0007821405 0.001532903 0.0002988993 0.0005889195 -0.00041708825 0.0009539676 0.0003335556 0.0015495465 0.00070401106 0.0008613672 0.000519222 8.0501195e-06 0.00036651327 0.0013494656 0.001369821 0.00070137234 0.0011800113 -0.000106446256 -0.0002253632 -0.0013416087 -0.0007285103 -0.0007234084 -0.0013461936 0.0001471539 -0.00011473608 -0.00020011405 0.00011701245 -0.0016254114 -0.00041496713 -9.6218566e-05 -0.0012462119 -0.0015091555 0.0015000228 -0.0009936303 -0.0016128834 -0.0013847393 -0.0015989823 -0.0007995895 -0.00022799906 0.0010377386 0.00074799435 -0.0015073128 0.0014638811 0.0016579285 -0.0012742043 -0.0002455379 0.0014631907 0.00013420709 -0.0007920611 0.0014904144 0.0011776765 -0.00023805429 -0.0010619902 -0.0010317537 -0.0012218439 0.00041943617 -0.00010697985 0.0016024213 -0.00050731684 -9.472268e-05 0.0016408416 0.00042463825 -0.0004970284 -0.0005203979 0.00027836845 -0.0014246275 -0.0005906441 0.0015066123 -0.0007827935 -0.00077640475 -0.00023588561 -0.00046914723 0.00012590771 -0.00069505593 0.0007123351 -0.0014697409 6.4063366e-05 0.00048329553 0.0012742807 0.0005386763 -0.0012013961 0.0013324473 -0.0008746675 0.0009893214 0.0010065514 0.0010220492 0.00068595936 0.00027861717 -0.0013998358 -0.00030968743 0.0014467711 -0.00068235677 -0.00097651314 -0.0014530349 -0.0012788627 -0.00028968646 0.0005215941 0.001308634 -0.0003808416 0.00026195662 -0.00011661602 -0.0012067271 0.0009869224 -0.0007890108 -0.00064092485 0.001156836 0.0010130948 0.0013856167 -0.00044119856 8.248419e-05 -0.0006111108 0.0005051666 0.0007412617 -0.0009288866 -0.0016134076 0.0006135992 0.0013937866 -0.0011107719 -0.0007497676 0.0006637544 0.0011036778 -0.000105647494 0.0014736158 0.00016957668 0.00070137106 -0.0005927673 0.00082521123 0.0013487473 0.0015428235 -0.0011211348 -0.00091509195 0.00044300235 -0.0012016228 -0.0005101411 -0.0012723485 0.00044809745 -0.0005383157 -0.001313133 -0.00109547 0.0013888279 -0.00073913235 0.0010849227 0.0011068834 0.0007200151 -0.0006034156 -0.0010384339 -0.00038610143 0.0003239356 -0.00095889875 -0.000900668 0.001565361 0.0005340501 0.0012137643 -0.0003407156 0.0005681061 -0.00050537655 -0.0015527856 -0.00056974706 -0.00075731403 0.0014086496 0.0012035423 -0.0012684901 1.2822084e-05 0.0010730232 0.0010846683 -0.0012761906 -0.00046017487 0.00044701964 -0.0002880423 0.0011123883 -0.00073899416 -0.0010038875 0.0014528951 -0.0009086822 0.0009239027 -0.0013558703 0.0005743209 0.00041555584 -0.0015481741 -0.0005697125 -0.00010728941 -5.540557e-05 -0.0015740558 -0.00079887314 0.0014699019 0.0010468358 0.0014653772 -0.00093315565 -0.00074513647 6.462913e-06 0.00010188913 0.0015008985 8.5644635e-05 0.0009788435 -0.0006226808 -0.0009492625 -0.00024665054 -0.00043411742 0.00019641442 0.00097029173 -0.0008850425 -0.0011893453 -0.001348104 0.0010680311 0.00068658934 0.0012097646 -0.00058995065 0.0011768187 0.0013873543 0.0008934993 0.0009697717 -0.001617847 0.000586883 0.00047671612 -0.0016530423 -0.0006712802 -0.0008687852 -0.00080026756 -0.001614382 -0.00042126488 0.00013086577 0.00010237778 0.00080748147 -0.00020766539 0.0008747208 -0.0007725999 -0.00024150872 -0.00117803 0.0016479662 -0.0014449304 0.0014087493 -0.00054760376 -0.0006782113 0.0012116117 -0.0010627756 0.000983006 -0.00032519375 -0.0012033568 0.0014290268 0.00072440243 -0.00033198242 -0.0008420416 -0.001353891 0.00090828736 0.0012626767 -0.0015052377 0.00042093557 0.0015651678 -0.0013303678 0.0003161413 0.00040666037 -0.00037538394 0.0015290864 -0.0001374613 -0.0012407461 0.0015096327 0.0016614974 -0.0008087373 -0.0007398021 0.0011686431 0.0004885113 0.0011066966 0.0007356213 0.00055390684 0.001359985 -0.001217352 -0.00074119656
发现新的外部危机出现，结果人类并没有像电影里一样团结到一起[doge] 3.4974695e-05 0.0001372116 -0.00054449524 0.00056314026 -0.001142519 -0.0015576944 -0.0013646499 -0.0012010935 -0.00012865872 0.0013584701 0.00032823024 0.00067394046 -0.0002654019 0.0015069683 -0.0013199735 -0.0012190829 -0.0012340602 -0.0010838144 0.00064783817 0.0010769814 -0.000955398 -0.0008823551 0.00052591483 -0.001611972 -0.0016611662 0.0012777443 -0.0013004902 0.001058987 -0.0005565587 0.0004915872 -0.001560863 0.0002816641 -0.00086395786 -0.0006832933 -0.000992633 -0.00018749277 -0.0014666341 -0.00070274895 -0.0016236164 -0.0014413864 0.00013488515 0.0011817821 0.0012205862 0.00026839421 -0.00010213527 -0.00051434577 -0.0015953253 0.0014940589 -0.0016227645 0.0006789723 -0.00026727558 0.00019880744 -7.581848e-05 0.00023928305 0.00052808214 -0.0015680625 -0.0014691139 0.0011339694 -0.0013438499 -0.00026150086 0.0010353099 0.0012519268 -0.00084030116 -0.0003998836 -0.00015205874 0.001630598 -0.0014257781 0.0005795829 1.9123543e-05 0.0003145122 -0.0007930411 -0.0013370424 0.00097448233 -0.0011335945 -0.0013052175 -0.0001293212 -0.0010975575 0.0008856195 -0.00067024655 0.00022853176 0.0015557193 0.0015925033 0.0011776482 -0.00041072475 -0.00095278537 0.0010938763 0.0009051085 0.0009671803 -0.0015868599 -0.000518939 -0.0015493365 0.0010556042 -0.0011361848 -0.0006024759 -0.00010385342 0.00093191804 0.0010582239 0.0013918877 -0.0015821912 -1.1053578e-05 0.0013572519 -0.00061573583 0.00030262076 0.0005083081 -0.00036373507 9.0711925e-05 -0.00057309587 -0.0014983102 -0.00083236105 0.0007860777 0.0008769486 0.0010796837 -0.0014396402 -0.00080646464 -0.00060644076 -0.0015169823 0.001624922 -9.7735414e-05 0.00012910622 0.00070364703 0.001262056 0.00013068398 0.00016286563 -0.001178151 -0.0011477226 -0.0009930235 -0.001292957 -0.00071540393 -0.0015025937 -0.0013101541 -4.836185e-05 -0.001557106 -1.4422086e-05 -0.0015508635 -0.0011919026 0.00071112084 -0.0016475818 -0.00087141123 -0.0006153458 0.0013170067 0.00015740992 4.1104427e-06 -0.0005507898 -0.00067318545 0.0012012998 -0.00045670988 -0.0007442114 -0.0008232876 0.00032914968 0.00039842876 0.00040233548 -5.3043765e-05 0.0011842218 0.0010911094 0.0011670262 0.001012219 0.0009086798 -0.0013802917 0.0015736814 0.0008333754 1.41003065e-05 -0.0013029828 0.0011364431 0.0002995511 0.0009444913 0.0012069712 0.0007124262 -0.0005085303 -0.0013288244 -0.0015853193 -0.0016161329 0.0013648577 -0.0013473084 -0.0003315926 -0.0013729377 -0.0005804135 -0.0012254 0.0014379259 0.0012472889 0.0003603933 -0.00013143975 0.00094078685 0.00036992753 0.00077621784 0.0010847352 -0.00029585435 -0.0013025616 0.0010919124 0.0006969083 0.0010180768 0.00023080596 -0.0013409791 0.0014100192 0.0006184011 0.0007518425 5.337941e-05 -0.00067876675 1.0056231e-05 -0.0007573045 0.00090116565 0.00057022425 -0.0016656568 9.081504e-05 -0.0007070563 0.0014413683 0.0014373107 -0.0011810734 -5.387653e-05 -0.0014533456 0.0014726424 -0.0009566535 -0.0011016506 -8.105325e-05 -0.0007887591 0.00060276897 0.0010646223 0.00059781526 3.971041e-05 -0.0011140971 0.00011797073 0.0012418659 -0.00076344074 0.00091608445 0.0010550704 0.0015236539 0.0013038387 0.0013166139 0.0015288884 0.00023019302 -0.00015937725 -2.5844984e-05 -0.0014552728 -0.0003205857 0.0009376669 -0.00022105488 0.0014724429 0.0016499191 -0.0014304557 -0.0007795138 -0.00068712345 -0.00026652092 0.0009528508 0.0016608753 0.0007951287 -0.0011320469 -0.00029493295 0.00021039536 0.00025728802 -8.072417e-05 -0.0016524695 -1.2117929e-05 -0.0016334334 -0.0011329891 -0.001424702 -0.0009561725 1.3447531e-05 5.3321615e-05 -0.00038620128 -0.00088236056 0.0013539835 0.0016080048 -0.00018364553 -0.0004508958 -0.0010087368 0.0009909151 -0.0015410407 -0.0004538549 0.0014963077 0.0013570176 0.0013116348 0.00037752953 0.0016435495 0.00065851706 -0.0005169756 0.0007097161 -0.0014717355 -0.001348183 0.001605823 -0.0009071552 3.383622e-05 0.0016205147 0.00027367292 -0.0007777444 0.0012598714 -0.00026099282 -0.0014770317 0.00084102026 0.0012677306 0.001477746 0.00062886486 -0.00027195018 -0.001431507 4.4960638e-05 -0.0009618354 -0.00039552053 -0.0015080856 -0.00013366155 -0.00017016541 -0.0015445864 -0.00069176004
弹幕素质真的不好，王老师可能讲的不合你胃口，但是也请听下去，大师的成就过程不就是不断听取，思考吗。不要戾气这么重，把自己的主观判断当成真理 -0.0014800637 -0.000769266 -0.0002423743 -0.0011857068 0.0012313707 -0.0015207507 -0.0013358307 0.0013826643 -0.0016428403 0.0003219953 -0.0004967511 -0.0008620778 -0.00021322278 -0.00074727845 -0.0015458096 -0.0006642551 0.0010289913 0.0003515883 -0.0014259049 0.00081087876 0.0010125004 -0.00024752124 0.0004149298 0.0002780787 -0.00087465916 0.0004046071 0.0004502623 -0.00021027112 -0.001231591 -0.0007450172 -0.00019103616 0.0014915199 -0.00137101 -0.0016599328 0.0014756722 9.897171e-05 -0.0016035839 -0.0006616581 0.00032228656 0.0007757948 -0.00062975596 -0.0015296993 -0.0013826533 2.2507698e-05 -0.0004211785 -5.482143e-05 -0.0013469211 -0.00094764086 0.0015355352 0.001328589 -0.0009324814 0.0005331559 -0.00037041638 -0.0009863812 -0.0014036532 0.0005430399 -0.0014301592 -0.0013347004 0.0009791933 -0.001277906 0.0012359611 0.00035940154 0.0007290401 -0.0007211343 0.0011298168 0.00042796158 -0.0013798511 0.0011519667 -0.0006331692 -0.0009225162 0.0002546248 0.0014336245 -0.000784232 -0.00065619615 -0.0005369429 -5.218421e-05 -0.00047025134 0.000716519 0.001375881 -0.001420726 0.00074809656 -0.00013224248 0.0004292106 -3.2842236e-05 0.0014450608 0.001555333 0.0015631092 -0.0015789878 0.00072298106 0.00093478034 -0.0005636137 0.0010761068 -0.0012107494 -0.00097282405 0.00041245003 0.0005385574 -0.0015836656 0.0013494155 -0.00032530338 0.0013821945 -0.001639966 9.6819305e-05 2.5136322e-05 -0.0009345823 -0.0004756754 -0.00018419817 -4.591043e-05 -0.00082912 0.0016572699 -0.0012657029 0.001015411 0.0016087398 0.00025331625 -0.0009421216 -0.0006247473 -0.00027239195 0.0010227053 0.0011793192 0.00075266894 0.0015412613 0.0006848633 0.0010580758 0.00016430422 -6.0302344e-05 -0.00037348867 0.0006026753 -0.00093870645 0.0012376006 0.0012456328 -0.00060037576 0.0015982589 -0.000183989 3.222504e-05 -0.0011238989 0.000689002 -0.0014268284 0.0008092672 0.00017924806 0.0012918578 -0.0010217016 -0.0005423288 -0.0015893052 0.00083136465 0.0015121717 -0.0013465981 0.0015228349 -0.0012252074 -0.0011930412 0.00077474775 -6.237769e-05 0.00023001475 0.00035760345 -0.0016052063 -0.0014674315 0.0007554515 -0.0004158956 -0.0008651875 0.001268678 0.0011339792 -0.000727551 -0.00048738375 0.00068776374 -0.00088813703 0.0009771851 0.000752751 -0.0008545884 -0.0013433981 -0.0014419707 0.00055832416 5.0724043e-06 -0.0012106368 0.0010774086 0.0003550078 -0.000501866 -0.00090471515 -0.0009058305 -0.00045195915 -0.0016162476 -0.00073026994 -0.0007111465 -0.0006546221 0.0010739092 4.4473865e-05 -0.0006734259 -0.00026703905 -0.0001364667 -0.0008948571 -0.0007977648 0.0016415925 0.0013171035 -0.0016131594 -0.0012875767 -0.0011402419 0.0011913062 -0.0006477993 -0.0009610007 -0.00040876504 -0.0012913349 -0.0004102106 0.0010276352 -0.00026215307 -0.0007851756 -0.0006269758 0.0011080522 0.0001751869 0.00056669 -0.0012921991 0.0009705917 0.00094872754 -0.0016083316 0.00030555422 0.0010719793 0.0006629761 0.00027318398 0.0012477626 0.0009370566 -0.00096661394 0.0015117867 0.0002882536 -0.0013037832 -0.00043952078 0.001500518 -0.0013236075 0.00026429124 0.0010355816 -0.0009898031 -0.001130075 -0.0010859551 0.0007383895 0.0011767338 -0.0003840062 -0.0003655319 0.0010818095 -0.0005990173 -0.0011256004 -0.0007315055 0.0014213847 -0.0014696675 -0.0014992321 -0.00039460367 0.00022351534 0.00075061904 -0.0008015858 0.0014961845 0.00160144 0.0002894315 -0.0014467601 -0.001174714 -0.0014519895 -0.0011253194 -0.0012525909 0.0011685933 -0.0010435112 0.00036183768 0.00070133276 0.001170833 -0.0015997817 -0.00025802857 -0.00075641804 -0.0015106872 0.0014123344 0.0010687619 0.00126099 0.0015280119 -0.0001680589 0.0011808312 -0.00036905686 -0.0016440478 0.0004066416 0.0013693485 -0.0005821843 0.0010842591 -0.0002291689 -0.0012233265 0.0009838128 0.0014216389 0.0016198407 0.0013904672 0.0002352122 0.0015037302 -0.0013761321 0.0012592743 0.00032123204 -0.00040960105 -0.0013499149 -0.0005218164 0.0015194835 -0.0013283961 0.001008876 -0.0007719717 0.0016141125 -0.00036243993 0.00042393344 -0.00055726786 -0.0010468332 -0.00023566214 -0.0011313098 -0.00050773035 -4.6283552e-05 4.0997274e-05
昨天无意打开十个月前外网观看火神山、雷神山，其中不少恶意嘲讽、抹黑中国抗疫的评论。仔细想想他们至今为止好像没有建造火神山，雷神山的新闻。 -0.0014325051 0.000736108 -0.0011348786 0.000654531 -0.0003516863 0.0012270513 0.0013110896 0.0012595156 0.00018301632 -0.001332209 0.0011804891 -0.001655317 0.0013242926 0.00014952035 -0.00046321217 -0.0007264125 -0.0012077946 0.000903774 0.0008965715 -9.205092e-05 -0.001628694 0.0010619967 0.0012907519 0.0003031282 -0.00014349436 -0.0009927654 0.00062208204 -0.0008124501 -8.262639e-05 0.0012937086 -0.0014767686 -0.00037030416 -0.0014567347 -0.001483779 -0.0004964786 -0.0009805794 -0.0002884124 -0.0006835747 -0.00042100495 0.0010166166 -0.00010083506 -0.0011116937 -0.001130635 0.0008134834 0.00019457948 0.001019731 0.001501767 0.00032429743 -0.0009803663 -0.00028381855 0.00035634442 -0.001178529 0.0014768419 0.0005759078 -0.0013743575 -0.0014173575 -0.0007242368 -0.0016041996 0.0015604626 0.0006988508 0.0014069512 0.00065790635 -6.415672e-06 -0.0012400574 0.0008384034 6.551693e-05 -0.0015306929 -0.00074045616 0.00018933124 -0.0007878477 -0.0007375216 -0.0014017517 0.0011225895 -0.0015637062 0.0014082217 -0.0006959741 0.001147926 -0.0015481564 -0.00075442507 -0.0012804549 0.0009755669 -0.00096236204 -0.00056058296 0.0015636942 -0.00087777514 -0.0009759526 0.0015704706 -0.0015835526 0.0012371722 0.0014927669 0.0014746335 -0.0016049022 -0.00011628874 -0.00012079846 -0.00047325398 0.0015476337 0.0012006963 0.0012586653 5.4798747e-05 0.00041000586 0.00030520538 0.0014867819 0.00012463695 -0.0012551675 -0.0011609695 0.0001224395 0.0010468671 -0.0013344086 -0.00069183105 0.0010347846 0.0007542318 0.0010026346 -0.00013992659 -0.000675275 0.0004713094 8.866456e-05 -0.00038841684 0.00016132685 0.0008511157 0.00081101933 -0.0010997789 0.0006856631 -0.0005180094 -0.0010642264 -0.00066393055 0.0014868375 0.00031734613 -0.0013222633 0.001271216 0.00037492564 0.000425282 -0.0006484063 -0.0009237055 0.0016302002 -0.00070160103 5.4027645e-05 -4.7355195e-05 0.0013545111 0.001086016 0.0003192897 0.0013612015 -0.0006111025 0.00012846834 0.00079155026 0.0013105621 0.0014433191 0.0016485553 -0.0012902934 -0.0015842209 0.0010685743 0.0014518946 0.0011008395 -0.0013309687 -0.00027162477 0.00089415174 0.00063026656 -0.00014289033 0.0006533583 -0.0013850132 0.0014081739 0.0009294875 -0.000650839 0.0014607427 0.0005595741 -0.000174014 0.001063092 0.0005009036 0.00046079286 0.0010643945 -0.0013421372 -0.00034190287 -0.001596279 0.0010139291 0.0005960717 -0.0006675781 -7.084293e-05 -0.0016584685 0.0008565341 -0.001589465 0.0011346204 0.0006789711 0.00053191144 -0.0014690419 3.751826e-05 0.0011552593 -0.0003239438 -0.0014842714 -0.0015545698 -0.0016117354 0.0008138942 0.0011448278 0.0013833464 0.0012568252 -0.0010513369 -0.00042889355 -0.0006203657 -0.0008929821 0.0011523518 0.00024720342 -0.0013981444 -0.00059381727 0.0011425668 0.0016254684 -0.00024873865 -0.0013550095 -0.00064482033 0.0002248793 -0.0007581349 0.0015542719 -0.0013794639 -0.0006352702 0.000931917 -0.00035343866 4.5614048e-05 0.00038482627 0.0006668729 0.0010712617 -0.0013138136 -0.0001749689 -1.4724664e-05 -0.0015635078 0.0010964709 -0.0013819732 -0.0007925198 0.0007175792 0.0006650589 -0.000803858 0.0014491741 0.001573498 0.00019623373 0.00062886544 0.001509503 -0.0013900844 5.6423414e-05 -0.0014915346 0.0011760222 0.0004874457 0.0012575642 0.00010049939 0.0011207042 -0.00082055863 -0.0007933783 -0.0015290166 0.0011155161 0.0011145406 0.0012013196 0.0011406352 0.0011386912 0.00092956587 -0.0008424576 0.0015243548 -0.0009883877 -0.0007062284 0.00076858536 0.0014449735 -0.0015099536 -0.0006853552 0.0013227643 -0.0007666296 0.00048678904 -0.00019705103 0.0014177398 0.0015552873 0.0012595768 0.00033380912 0.0007860279 0.0014589542 0.0007330161 -0.0011513438 -0.00026962694 -0.0015307867 -0.0013475253 0.0005261255 0.00021207989 0.0008944705 0.0004661591 -0.0015903163 0.00036645195 -0.00056521996 0.0014604611 0.00035325307 -0.0015634276 0.0014410762 -0.0011625221 0.000476074 -0.0001688429 0.00076141773 0.00057800306 -0.00018960284 0.0007265475 -0.00094282255 -0.0010696662 -5.5589702e-05 -0.0014713682 -0.0013251773 0.00077041733 7.524567e-05 -0.00042525792 0.001561603 -0.0015696294
美国衰落世界多极化发展，联合国地位上升，开发可控核聚变，成立地球联邦，飞出地球移民宇宙，机械飞升，完美[doge] 0.00034138028 0.0010459537 -0.0012336079 -0.0014285943 -0.0013756367 0.001380501 -0.0009520191 -0.0016343314 -1.0894155e-05 0.0004614878 -0.0006440651 0.0014457793 0.0006796421 -0.0001172003 0.0015820212 0.0009597721 -0.000324612 -0.00097175676 0.00042179308 0.0011540203 -0.0010919428 0.0003446644 -0.00017729052 0.000481387 -0.0013989304 0.0010856733 0.0011801457 -0.00022910305 0.0011964365 0.0015323199 -0.0002975242 9.771612e-05 0.00022771042 -0.00020569211 6.163242e-05 0.000431893 0.00014211112 0.0011787133 0.0003254693 0.0016567229 0.00042021638 -2.51154e-05 0.0012644371 0.0006479455 0.00042297336 -0.00057309336 -0.00078708516 -0.0013997417 0.0001674292 0.0008724282 0.00040628357 0.00031509038 -0.00063038984 -0.0006470084 -2.2761851e-05 -0.0005306325 0.0011425815 0.00063572277 -0.0013600411 0.00045874383 -0.0012870946 0.0008413915 0.00038491152 0.0006874969 -0.0013950118 0.0003831722 -0.0016517792 0.0005253842 -0.0012918026 -0.00027423142 0.0009943981 -0.0006917114 0.001122371 -0.0007335144 0.00079085643 -0.0006553555 0.0009711264 0.00050510606 -0.0007976666 -0.0011717015 -0.00016933594 -0.00055871904 -0.0006208695 0.0009298765 -0.0013073307 -0.00094870443 -0.00045089977 -0.0010795115 -0.0013867185 0.000113528615 0.0015283466 0.00031241454 -0.00020338666 -0.0001374457 0.00017010719 -0.0015523965 0.0011802706 -0.00021339126 -0.00024121914 -0.00081590936 -0.000114832015 -0.0014606331 0.0016456607 -0.0003322672 0.00029676483 -0.0007207242 0.0012910028 -0.00013451831 -0.00044659007 -0.00068566605 0.0010591247 0.0002960685 -0.0003834433 -0.0014584042 -0.00045005392 0.00073749083 0.0010914453 -0.00041700646 0.0011542338 -0.0010737709 0.0016586968 0.0013952684 -0.00074289733 -0.0003241299 0.0013071754 -0.0010050302 0.0010962761 0.001292595 0.00094690535 -0.0008096564 0.0014818078 -0.0012250404 -0.00084064406 0.0005946991 -0.00071466167 -0.0012156932 3.759189e-05 0.00055464404 0.00039780219 0.0005172502 0.0013958456 0.0004759613 -0.0009992499 0.0013420666 1.4310516e-05 -0.00028056628 0.00035449237 0.0013668109 -0.00045827957 0.00089576014 0.00028208422 0.001127666 -4.8227073e-05 0.00046175823 0.0010927214 -9.325789e-05 0.00037559966 0.00094428874 -0.0007341401 -0.00106848 0.00074541016 -0.0016644435 -0.00013366049 0.0012986676 0.0010478826 -0.00069461373 0.00033638658 -0.00035804062 -0.00025604054 0.0015591081 -0.00039012675 0.00041609604 0.0009635715 -0.0015211427 -0.0016649124 0.0010051818 -0.0010943144 -0.0005573935 0.00026168564 -0.00065620337 2.3921526e-05 -0.0007667978 -0.0005600419 0.0006511835 0.0006570735 -0.0015613819 -0.001532473 -0.0013034666 0.0004180016 -0.00070161547 0.0016526409 0.0011513656 0.00025911446 -0.00087876344 0.0013419323 0.0014173947 0.00065059063 -0.0004626508 0.0014852294 0.001016033 0.0008162434 0.0006534032 0.0015786024 -0.0015632383 -0.00072833407 0.0003832629 -0.0013950723 -0.00050146 1.5958677e-06 0.0016279037 0.0001173773 -5.22417e-05 -0.00016485307 6.442657e-05 0.0004170449 -0.00078864134 -0.00071385974 -0.0010219224 0.0015155249 0.0006145713 0.000488328 -0.0004167032 -0.00048636016 0.0012429504 0.0008542701 0.0009452076 -0.0008889987 -0.00085763825 -0.00024882494 -0.0015601284 -0.00051412417 -0.0009583066 0.00070971396 -0.00080902886 0.0011891897 0.0003864147 0.0005504003 -0.0015461483 0.0016585012 0.00018468403 -0.0003993937 0.0011905755 -0.0009587029 0.0009605544 0.0007680083 -0.0007428345 -7.736131e-05 0.00072242966 0.00023925464 0.000860738 0.00013553374 -8.250683e-05 0.00030150614 -0.0016072593 0.00033853482 0.00092998694 -5.477506e-05 -0.00026406956 0.00039044165 -8.812225e-05 0.0011550166 -0.00041163602 -0.0008180423 0.00051962974 4.4256118e-05 -0.00045525673 0.0007122427 -0.0011804134 0.00085701287 -0.0011191675 -0.00091371714 -0.0011929614 -0.00025216647 0.0008667915 0.0009816689 0.00052853895 0.0012834616 0.0009993027 0.00073336606 0.0014239175 -0.00041389378 0.0010611048 0.0012692774 -0.001576267 -0.0016590855 -0.0003798293 0.0015852258 -0.00072427164 0.0012861348 0.0007368113 0.00023380069 -6.273363e-06 -0.0013309276 0.00020278324 -0.0001204908 -0.0011117049 0.0004696305 0.0007540686 -0.00081900373 0.0010720391
个人反对陈平老师说的“对等”策略。。。听起来很过瘾，但手法太粗糙了。说不定还会适得其反。 -0.0001381974 -0.0010850617 -0.0016219022 -0.00011545944 0.0008714302 0.00033622925 0.00044856194 -0.0015117913 0.00049464876 -0.00052436406 -0.0016132821 -0.0006609698 4.008495e-05 -0.0012056471 0.0013399062 0.0010808528 0.00037185856 0.00055062585 -0.0011118737 0.00043896842 0.0009843135 0.00047599775 0.00090749795 0.0015557735 -0.00031827265 -0.00108379 -0.0001493457 -0.0012122788 0.0012332479 -0.00026837515 0.001423516 -0.0004190864 -0.0006691191 -0.0012044599 9.3563685e-05 -0.0007248583 0.00073273224 -0.0005631526 0.0003366178 0.00084601925 -0.0011648076 0.0015339233 0.00044484786 -0.0006374701 -0.0011128016 -0.0006612593 0.0016346609 0.00054294156 -0.0014626054 0.0008347684 -0.00037448911 0.00028488284 0.00036866523 0.00050107454 -0.0007054069 -0.001175052 0.00031902 -0.0011584407 -0.00021804741 -0.0012350375 0.00046035458 0.00061976374 -0.0011619822 -0.000734374 0.0007550423 -0.00059336086 0.00032997882 0.00020016839 -0.00104821 0.0006466345 0.0015727548 -0.0011211212 -0.00048140986 -0.00042759735 0.0009875847 0.0012604083 -0.0010011152 0.0016600701 -0.00018771383 0.0012837407 -0.00055327185 -0.0013381201 -0.00048194645 -0.00040012965 0.0013455511 -0.00033987866 0.0010597437 -0.00050328573 0.0007956608 -0.00077877665 0.00029547745 -0.0015130653 0.0006222645 -0.00034093045 -0.00031178762 -0.0015927455 -0.0007522113 -0.00075484737 0.0007149018 0.00041515968 -5.3029642e-05 -0.0011359634 0.00063369126 0.00044743594 -0.00011896148 0.0016277382 -0.00058203196 -0.0012746941 0.00052850344 -0.00021739681 0.00031780574 -0.0008320704 0.0011659919 -0.00050614495 0.00073802064 -0.0008243605 -0.0014475572 -0.00087586767 -0.00094188 -0.0013076566 0.0014946637 0.00091830926 -0.0015576074 0.0015417639 0.0008956391 0.00031991632 -0.0012369361 0.00028391634 -0.0006748691 0.00038557308 -0.0012904593 -0.0013690802 2.6297093e-05 0.0006975687 6.624963e-05 -0.001276409 0.0013285737 -0.0006673439 -0.00050596026 -0.0013157588 -0.0005570509 0.0011022721 -0.00035351838 0.0010763828 -0.0008889707 0.0002526337 0.0015149653 0.00045261733 0.00091832044 0.00015172228 0.001038156 -0.0003865965 0.0013803977 -0.00012345749 0.0011780575 0.0011814986 -0.0003169076 0.00067428837 0.00060263224 -0.00026320943 0.001049387 0.00035692478 0.0015970643 -0.001051862 -0.0007314464 6.8630843e-06 0.0014862858 -0.0016602562 -0.0014790624 -0.0008697594 -0.0016059299 -0.00059708016 -0.00079224695 0.0011875051 0.0013262485 -2.1128946e-05 -0.0010694979 -0.00017641588 -0.0015019448 0.0015114549 0.00036777515 0.00020241243 0.0015528674 -0.0012674556 -0.0014174572 0.00080305396 0.0015195068 0.0013091315 -0.0007933147 0.0016306869 -0.0011572588 0.0014078717 0.0014701718 0.0005896206 -0.0010091511 1.9745688e-05 0.0011449798 0.00057212415 -0.00048540276 -0.0012689292 0.000102926926 -0.0005661894 0.0010342626 -0.001201373 -0.00065769785 -0.000502164 0.0011237111 0.000976644 -5.910779e-05 -0.0012438007 0.0007460991 -0.0009926042 -0.00074760005 5.3358293e-05 -8.427234e-05 -0.00037065774 0.0015412152 -0.00023826494 0.0004549734 0.00025031652 0.0009386914 0.00018762887 0.0004337132 0.0016421052 0.00087620143 -0.0005559786 -0.0013519432 0.0013341686 0.001510044 0.0014804589 -0.0014928812 -0.0008420827 0.0014970595 -0.00059292576 0.0012128951 0.00070299604 0.001211044 -0.0007491828 -0.0012172641 0.00022411041 -0.0011828245 0.00015423764 0.0006715822 0.0016120749 0.00116857 -0.00015082427 0.0012102138 0.0011972351 0.0013732956 0.0001353189 0.00040545978 0.0001284384 0.0011488972 -0.00067102147 -0.00031232307 0.00063408935 -0.00015188151 0.000104884006 0.0016594162 0.0016378126 -0.0010975541 -0.00034609583 0.0016663813 0.0011689449 -5.3988246e-05 -0.00056511693 -0.00014127538 -0.00058594014 0.0004918162 -0.00075040775 -0.00011000408 0.0013136608 -0.0011100643 0.0015243228 -0.0010459304 1.7179462e-06 -0.0004868276 -0.0011219634 -0.00123626 3.209027e-05 -0.0006939709 0.0013081362 0.0013224884 5.163599e-05 -7.612515e-05 0.00021370116 -0.0005207951 -0.00018382206 0.00072480814 0.0015362512 0.0002186015 0.0011911278 -0.0002025831 0.0004980971 -0.0006957367 -0.0013889882 -0.0015120369 0.0015540187 0.0004944334 -0.00047441176
更倾向于王湘穗老师的看法。 -0.0005429324 -0.001216098 6.564604e-05 -0.00095086196 0.0005835637 -0.0013212664 0.0003864608 0.0015784807 0.0012830561 -0.00027102715 -4.8238853e-05 -0.00018541444 0.0009370216 -0.0003909163 -6.083234e-05 0.0007774686 0.0010591109 -0.00087722857 -0.0009228898 0.00104307 0.0009648241 0.0003444059 0.000718618 0.000632495 8.820251e-05 0.00010044104 0.0009498386 0.00072608725 -0.00063375157 0.0013331067 0.0007615949 -0.00034932522 -0.00023556038 -0.00087889476 -0.0014718415 -0.0010242274 -0.0011802512 0.0008490376 0.0009812166 -0.0014900558 0.00013974633 -0.0006257479 0.0016035292 -0.0004599962 -0.00037335593 0.00023560584 -0.00031717098 0.0016053356 0.0006946838 -0.00030621796 0.00015706188 -0.0011276182 -0.0011889524 0.00064396416 0.0012601959 -0.00076728483 0.0011379519 -0.0008033325 -0.0010005514 0.0012124013 -0.0014329738 0.0013322543 -0.00030427787 0.00012591894 -0.00016897825 0.00071564445 0.0014662256 -0.0010287458 0.0015974633 0.00081071706 -0.0010549012 0.0010794285 0.0014760011 -0.0015657076 -0.00019320016 -0.0008711132 -0.0010330876 -0.0014035769 -0.0014897481 -0.0012551829 -0.0010872624 0.0006557105 -0.0016652725 0.00038746806 0.0011236423 0.0009908252 -0.00012372812 -0.00062964676 -0.00046241656 -0.001377826 -0.00067040365 0.0006678442 -0.00017632818 -0.0011949573 0.00050297746 -0.0014007969 0.0014209191 0.0009769455 0.0007354326 0.0007453804 0.0004093178 0.0002022325 5.4713826e-05 -0.0012961506 0.00055797014 0.0014594641 -0.0007791742 -0.0014173532 0.0005445463 0.0016639145 -0.0015809898 0.0009416896 0.00015781014 -0.0007570757 0.0010358094 -0.0012003203 0.0005492532 -0.0011720274 -0.0014408084 -0.0013467846 0.0012049414 0.00040031114 0.0006539006 0.00092929276 -0.0015973835 -0.00076337997 0.00067973195 -0.0007530144 -0.0014354005 -0.0008823518 0.0001846754 0.0013039818 -0.00069878856 -0.00100392 0.000116670766 -0.00071139727 0.0008438553 -0.000382826 5.2785974e-05 -0.0011926284 -0.00080873526 -1.5480988e-05 0.001261198 -0.000521063 -0.0008899454 0.00093807676 -0.0005690968 0.001447194 -0.0010794688 5.396575e-05 0.0007845648 0.00027678898 -0.00036936163 -0.0003619668 0.00093982875 -0.0014868125 -0.00026550057 -0.00018537564 0.0012933754 -0.00087018387 0.0012861863 0.00013210851 0.00084243366 -0.0011833486 -0.0006067147 -0.00049886864 -0.0004226038 0.00020321003 0.0013882746 0.00012862723 0.0014749782 -0.0005356097 -0.0013113186 0.0010109246 -0.000321789 -0.0013113872 0.0015893532 -0.00052646524 0.000952945 0.00010129706 -0.001018898 -0.0012671046 0.000105481544 1.9861662e-05 0.0010978603 -0.0012708672 -0.0015020064 0.0014986682 0.0014233616 0.00052258465 0.00035940373 -0.001286759 0.00087346643 0.00020937275 -0.0008263032 0.0010099848 -0.0013915679 -0.0012540496 -0.00058171764 0.00025649343 -0.00065406016 0.0012897042 -0.0014188433 -0.0016542411 0.00082069315 -0.0015360035 -0.0011360793 0.00016518611 -7.855967e-05 -0.0006401156 0.0012935833 0.00040711468 -0.000757194 -0.0003979616 0.0011483921 -0.00064784643 -0.00049544947 -0.0009477512 -0.00038295425 0.00032019767 0.0006304038 0.00046506448 0.0007494893 0.0001958442 0.00060559646 0.0015643607 0.00039464713 4.7321337e-05 0.00023271631 0.0013034291 0.00022534005 -0.00032954323 0.0013861246 -0.001003406 -0.0013569023 -0.00072264206 -0.0014512975 -0.0014776079 -7.246697e-05 -8.285882e-05 0.0007633398 -0.0015437508 0.0011564377 0.0012408772 0.0007430725 4.0098617e-05 0.00073112844 0.001540871 0.0008121002 0.0016056609 -0.0013685293 0.00039905935 -0.0015681848 -7.091594e-05 0.0010912758 8.238405e-06 0.0005555568 -0.0011734951 -0.0011525919 -0.0010188958 -3.7565173e-05 -0.0008853662 0.00036384695 -0.0016331221 0.0010099445 -0.0016409004 -0.00015584081 0.0013675372 -1.7140172e-05 -0.00055626646 -0.00067611586 -0.0015981562 0.0010599595 0.000653305 -0.00070350454 -0.0005381356 -0.000648593 0.00021514166 -0.0007250051 -0.00059043465 -0.0011315602 0.00080409576 -0.0014118217 -0.0015360563 -0.000247728 -0.00051572506 0.00050366926 -0.0006936041 -0.00047943866 0.00033614927 -0.00022324435 0.0002932559 -0.0014897771 0.0008574841 -0.00092763675 -0.00085280894 -0.00031412122 -0.00035852773 0.0003488469 0.0015364112
陈老师大胆说，听的爽！ -0.0011888874 -0.0010893409 0.001125402 -0.00083749124 0.0010553891 -0.0002814976 -0.0015300007 0.0013220769 -0.0010942074 6.1582405e-06 -0.0013601863 -0.00024941287 0.0011125368 0.00025732216 0.0011911617 6.9675516e-06 0.00051997363 2.3841169e-05 0.0013212062 -0.0015758954 0.0003544419 -0.0011774689 -0.0009162485 0.00011170646 0.00038467775 0.00019361504 0.00049236655 0.0009863168 0.0014106298 -2.5090994e-05 0.0014794355 -0.00044624702 0.0012824001 0.0015656115 -0.00081543135 0.00020452675 -0.0007993754 0.0009640241 0.0013063286 -0.0015998544 -0.0015094283 -0.0003818779 -0.00023436589 0.001601301 -0.0014740257 0.00075756694 -0.00096537446 -0.0003635443 0.0011585118 -0.0012485352 -0.00017441227 0.0013204442 -0.001612805 -0.0009991871 -0.0012770466 0.00085345795 0.0014055251 0.0013552811 0.00027787633 -0.0015759807 -0.0010691992 0.0012950754 0.0010010635 0.0007213865 -0.0008989031 0.0010713801 5.956282e-06 0.0009379593 0.0010438018 -3.0719944e-05 0.0015333646 -0.00044408868 -0.0012353144 7.205884e-05 -0.0014348668 0.00071538 0.0003554682 -0.00045314126 -0.0011399525 0.0013978935 -0.0005773671 0.0012891517 0.00075675116 -0.00054885825 0.001177719 -0.0013899028 -0.0012091254 -0.00032858487 -2.4387535e-05 -0.0010368873 0.0016038526 -0.00083094946 0.00021167449 0.0006962108 -0.0012924193 0.0005300266 -0.00093198876 0.0016322536 0.00087085256 -0.0014050716 0.0006537667 -0.0005093211 0.00076603837 0.00048753645 -0.0015943233 -0.0014642706 -0.0007185005 -0.0012378894 0.0016247962 -0.00022389124 0.00011680889 -6.047326e-05 0.0013499624 -0.00043571639 0.00013518363 9.2198374e-05 0.0005495487 -0.0016665977 0.00021714864 -0.0013949227 0.00023279159 -0.00070195534 0.00055381964 0.0011279761 -0.00017690296 0.0015563552 -0.0010211617 -0.0015091788 0.0014432597 0.0005349161 -1.0341865e-05 -0.00125986 0.00019474802 -0.0011938125 -0.0009817451 -0.0011342885 0.0013785395 -0.00026982062 0.0015427211 0.0012750747 7.817594e-05 0.00031420813 -0.0016479427 0.00042055227 0.0010314458 -0.0012592319 -0.0002970169 0.00056547154 0.0006827003 9.932513e-05 -0.00040152002 -0.0008474266 -0.00036389983 0.000119031174 -0.0009519082 -0.0016058085 0.0013167055 -0.00010650673 0.00018166621 -0.00042882358 0.00022298523 0.0016558358 0.0003044081 0.001193978 -0.0014883309 -0.0009847021 -0.0012118277 0.0004978637 -0.00020200513 9.9433295e-05 -0.00072260184 -5.5396315e-05 -0.0006941152 0.0010527829 -0.0003219954 -0.0011740021 -0.0015619395 -0.0010753864 0.0010711286 -0.0013066183 -0.0011103987 -0.0010416362 0.0009994045 -0.0005328403 -0.0009682933 -8.7953355e-05 0.0015711983 -0.00072691235 0.0003213893 0.00023505324 -0.00072032126 -4.017423e-05 -0.0013545064 -0.001448083 0.0012713867 0.0011005441 -0.0008068299 0.0010136358 0.0008398901 0.0009797422 0.00089695666 0.0015919639 0.00157236 -0.00030736873 -0.0016327107 0.0006516993 -0.0010420287 -0.0011676215 -0.0008710554 -0.0007133692 -0.0006523655 -0.0015859575 0.0008343249 0.00086259225 0.00035408422 -0.001175132 0.0007342323 0.0005666966 0.0013890265 0.00035046338 0.0015191867 -0.00021246845 0.0013899073 0.001118271 -6.509494e-05 0.001537717 0.0013236771 0.0015226826 0.0011889213 0.00043045872 0.001049387 0.0012496928 -0.00039364965 0.00093992305 -0.00088383385 0.0009390164 -0.00081563904 -0.0016645915 -0.0012080314 0.0006456244 0.00094693666 0.00033589252 -0.0014641684 0.0010048616 -0.0011838338 0.00106907 0.00014438605 -0.0013457576 0.0001604366 -0.0012038765 0.0014149678 0.00019710798 0.00040966502 -0.0002651667 -0.0010262143 5.4846616e-05 -0.00089219806 -0.00076483056 -5.6582776e-05 0.001352799 0.0013219548 0.0014659646 -0.0012028952 0.0014858065 0.00038056227 0.0008297281 -0.00021789355 -7.621744e-05 -0.0009316715 0.00018388088 0.00016696942 0.0011800866 -0.0013008729 0.0011325039 0.0010525286 -0.0007459825 0.0012853899 0.0015354903 -0.0016541154 0.001212719 0.0009090335 0.00060513907 0.0009570993 0.0012648198 -0.0009693009 0.0003539478 -0.00080747146 -0.0006765357 -0.0011826499 0.0009895299 -0.0002605827 -0.00025503236 0.0010482606 0.0010670704 -0.0001676543 -0.000113834736 0.0010259789 9.6784635e-05 0.0002373947 0.0003238461
陈老师，您说的太对了，我的看法是你再多说几分钟效果更佳哦 0.0016217707 0.0011400136 0.0010283026 0.00044465964 0.0007898265 -0.0010029355 0.0008146703 -0.0010161421 0.00076986395 -0.0002878945 0.0005497559 1.5220261e-05 0.0010924776 -0.0016191785 0.0010789761 -6.783212e-05 0.0009300445 -3.3542688e-06 0.0010263926 -0.00022472379 0.0011732861 0.00069948274 -0.00077147863 0.001109958 0.00012526062 -0.0011328574 -0.0009472408 0.0003011571 -0.0009395898 -0.0005289432 -0.00086880504 -0.0015188506 0.0004695674 -0.0007233624 0.0012072477 -0.0014305365 -0.00037930647 0.001349442 -3.1977055e-05 -0.0015425046 0.0009901528 0.0015029238 0.0015918775 0.0009374502 -0.001259707 -0.0010928803 -0.0012933551 0.0003838129 0.001446973 -0.001117958 -0.0013522808 0.001390555 -0.00082697615 -0.00035828655 -0.00095268496 0.0006868338 0.0014306471 0.00079974975 5.004357e-05 -0.0007223732 0.00023033502 0.00025034134 0.0012447686 0.00019094729 -2.2805161e-05 -5.175168e-05 0.0013978612 -0.00072645326 0.000546322 -0.0012332312 0.0013564933 0.00059975835 -3.0891679e-06 -0.0015545599 -0.00011136566 0.0015146097 0.0015630734 -0.0004498903 -0.0013781127 -0.00095737533 0.00017349915 0.00029362435 0.0010695695 0.0004035442 0.0014420467 -0.00043567037 -0.00020755177 0.0013910781 -0.0010203195 0.0011971978 0.00022443572 -0.0005081479 -0.00082214404 0.0016531636 -0.0008909053 0.00054113026 0.00062753976 0.0009961231 -0.0008662769 -0.00068416906 -0.0003758004 -0.00095446093 -0.0005612747 0.00087609846 0.0004726483 -0.00048674818 -0.0013187213 0.0016457252 -0.0013854571 0.0004001131 -0.0001824308 -0.000811297 -0.00013970179 -0.0012887485 -4.8574206e-05 0.0014698941 0.0013695189 -0.001102678 0.0009247274 0.0011282831 0.0016269991 -0.0016525411 0.00036979307 -0.0015707844 0.0011199218 -0.0008551324 -0.00032347185 -0.0016001503 -0.00039387797 -0.0004208999 0.00062258815 0.00089479616 0.00034415408 0.0005700386 0.0013303168 -0.0008262085 0.0004283189 -0.0001696464 0.00022875583 -0.00025082464 0.0009373801 -0.0008749993 -0.00032555175 -0.0006476873 0.00058402115 0.0014769997 0.00079201703 0.00013606824 0.000364723 0.00055227376 0.00071595504 -9.705933e-05 -0.0016303072 -0.0010225398 -0.0009642466 0.0016204913 0.0011480736 -9.9010955e-05 -0.0016066625 0.0007569833 -0.00020257787 0.0015921232 0.0012788817 -0.0003696233 0.00042503086 0.0005349814 0.0016516565 -0.0009867261 0.0011469662 0.0008193299 -0.0015544259 -0.0012670167 -0.0006704339 -0.0002979586 -0.0016547298 0.00014740863 0.00064719206 0.0007924399 0.00048669896 0.00064530666 0.0006517064 -0.0013202683 0.0006819495 0.0010384815 0.00037733026 0.0016355423 0.000993394 0.00057850016 -0.000107652166 0.0014108531 0.0015036134 0.0008955526 -0.0012391446 -0.0007330817 -0.0015220107 -0.00078833115 0.00045444333 0.0014163797 -0.00065807987 -0.0014362624 -0.0013005392 0.0003510146 -0.00066989404 0.0010648136 0.0007817383 -0.0003429537 0.00052998314 0.0015515481 0.0002518118 0.00086391694 0.0010906212 0.00021657292 -0.0013349167 0.0006115117 0.001305243 0.0015798466 0.0010891015 0.00017731081 0.0005033651 -0.0010050865 0.0008269051 -0.0012325548 0.0012252938 -0.00014163746 -0.0012456723 0.0012108881 -0.0015973983 -0.00080996903 0.0004778419 -0.00064405834 0.0010875775 0.0011842303 -0.000605446 -0.0014133239 -0.0008136542 0.0006749141 0.0005465842 -0.0014773502 -0.0007960786 -0.0014949803 0.0010949492 -0.00012907686 -0.0016541738 0.00065182877 0.0016577201 -0.0015377257 -0.0015301933 0.0012707206 -0.0014032917 0.0015802912 -0.0008719684 -0.00084499083 0.00021103767 0.0014881247 -0.000828076 0.0014409015 -0.0007834558 0.00082913256 0.0016201317 2.830779e-05 0.00014716087 0.0012749345 0.0013949402 -0.0013256116 -4.1863525e-05 0.00086802803 0.0016394397 -0.00067479885 -0.0015324247 -4.7520334e-05 -0.0010268128 -0.0012457588 0.0013491964 -0.0015265482 0.0010773042 0.00035463995 -1.3992676e-05 0.0006837939 0.00021159608 -0.00028800208 0.0015584431 0.0012250909 -0.00063520274 -0.001317035 0.00049534626 -0.0016133955 7.708858e-05 0.0010127531 -0.0014363757 0.001279997 0.0010817971 -0.00081996416 2.1177477e-05 0.00017958619 0.0014393225 0.0006875601 0.0014935407 0.001152543 0.0001971082 0.000130894
我认同陈平大佬的说法，可以从 0.0010492605 0.00050104695 -0.0010763246 0.0016519061 -0.00081830885 -0.00082141906 -0.001123632 0.0003046611 0.0002705627 -0.0014502681 0.0016326922 0.0011803369 -0.0004223313 -0.0012326953 0.0003031369 -0.00040044094 0.00053613266 0.0012954172 -0.00059126504 0.0010384244 0.00073635206 0.00092911755 -0.00078452774 -0.0015967555 0.00087527034 -0.00056492526 -0.00047453953 0.00073483965 -0.0015898469 -6.740509e-05 0.00058377057 0.0008144718 -0.0010838212 -0.0015767984 0.00062816904 0.0004384812 -0.00044389008 0.0005146768 -0.0003593623 0.00023728382 -0.0003619097 -0.0010187409 0.00026636722 -0.0015498451 3.9812734e-05 0.0009814863 0.0016582462 0.0009745697 -0.00062584295 0.0005415654 0.0005507751 -0.00071488385 0.0010710174 0.0013026093 0.0011946136 -0.00042391213 -0.0016337357 0.0012108348 0.0002035237 -0.001011295 -0.00089625677 -0.0006061989 0.0009712077 -0.0013240991 0.00074979814 -0.0008361396 -0.00091517105 0.001510313 0.0013524632 -0.001299223 5.443321e-05 0.00011939781 -0.00026670675 7.66933e-05 0.0006201886 -0.0007999921 0.0015903084 0.0012592006 -0.0013580634 0.0015850154 -0.00084956334 -0.0010191911 0.0016102681 -0.0014757594 0.0011171014 0.0016331238 -0.000173129 -5.1272324e-05 -0.0014233793 -0.00039242243 -0.0006884161 -3.6509267e-05 0.0010946613 0.0016502049 0.0016503832 -0.0005096015 0.0003431471 0.0009783928 -0.0012592576 -0.0011711265 -0.0010321267 -0.0012204336 0.0005980403 -0.001160591 0.0010745528 -0.00066395523 -0.0006550336 0.0013975177 -0.0004659841 -0.00018406064 0.0010214262 0.0009546035 -0.00036804905 0.0016216994 0.001152974 -0.0011962882 -5.71914e-05 0.00037416394 0.00053747057 -0.00036994522 -0.00107598 0.00020871389 -0.001161221 -0.0012017343 -0.00016216315 -0.0013845713 -0.0004677122 0.0011384111 -0.0011538799 -0.000904981 0.00042716876 0.0008038143 -0.00019397541 -0.0008375912 -0.00066240085 0.0013828257 -0.0011716218 -0.00070241105 0.00038153707 0.0015825446 -3.7515547e-05 -0.00039793964 -0.0005165266 -0.0004208756 -0.0003922871 -0.0004828878 0.0011923196 -0.00037012622 -0.0006843314 -0.0006196945 -0.0003131647 0.001002854 -0.00010236038 0.0009441567 0.00020169171 -0.0008755634 -8.074141e-05 0.0006458302 -0.00025789088 -0.0012741621 -0.00060160575 -0.00033479993 0.00036707893 -0.000525416 0.0009205654 -0.00016637513 -0.00082828035 -0.00019194049 0.0014203446 0.0012400203 -0.0007001261 0.0014084517 0.0011373779 -0.00096157484 0.0012845382 0.0007250306 -0.0006539186 0.00011293661 -0.000987587 0.00016964356 -0.0016690429 -0.00083009043 0.001647327 -0.00058272213 0.00044524609 0.00037251422 0.00047031534 -0.001339287 -0.0012427199 -0.00081675895 0.0007815605 0.0010615231 0.00082019076 -0.0012856459 -0.00074706133 -0.00081943505 -0.0003073411 -0.0011800341 -0.0007793428 3.8125985e-05 0.0006274295 0.0009934145 -8.734494e-05 -0.0013215282 0.00042978136 -0.00076413463 -0.000382186 0.0015825212 -0.0016442265 -0.0005224394 -0.00095857395 0.0013508053 -0.0014696983 -0.00011644679 0.0014505658 0.0005138429 0.0012811885 0.0008460156 -0.00053142314 0.00049106695 -4.5341635e-06 -0.0004681786 0.00024758486 0.00065419613 -0.00025829222 0.00047264562 0.000102856946 -5.02159e-05 0.0012221036 0.00046935704 0.0014807276 0.00080665137 -0.0006161441 -0.00067667075 0.000574464 0.0014064105 0.0014179124 0.00030559654 0.00061972305 0.0011931706 0.0011237405 -0.0011116726 0.00022050166 0.0012555276 -0.00056972494 -0.00079405087 3.529285e-05 0.0008046766 -0.0002724013 -0.001024406 -0.0010063133 0.000459962 0.00082070014 -0.0005386249 0.00019961572 -0.0004630946 0.0012575642 -0.00032409627 0.0005411652 9.475545e-06 -0.00058309623 0.0008977743 -0.0010557319 0.0008181696 0.0013208564 0.0015823967 0.001054062 0.00028173975 -0.0011502414 -0.00045422956 -0.0006265847 -0.00058811385 0.0011573675 0.0011338156 0.00030779233 0.0012661872 -7.459843e-05 -0.0006123777 -0.0014550713 1.9434288e-05 -0.0007405374 -0.0010985949 0.0010366272 -0.00058821647 0.0005517062 -0.0015059081 -0.00012193365 -0.0016013667 0.0011925558 0.0014346095 -0.00067298743 0.0002519156 0.000616855 0.0014542345 -0.00032275796 -0.0002662099 0.0015856237 0.00031850103 0.0011352396 -0.0013442892
13:31 0.0008543749 0.00087580865 -0.0011777526 0.00079685857 0.0013588154 1.7148035e-05 -0.00065184524 0.0001030629 -0.00086082716 -0.000851069 -0.0016342598 -0.0008311786 5.35998e-05 -2.506164e-05 0.0014751191 -0.000100909936 -0.0007477351 -0.0016605731 -0.0012999594 -0.0015007516 0.001444571 0.00087716384 0.0007270862 -0.0007137699 0.0006673844 -0.00041368915 -0.0008814169 3.6500296e-05 0.000443575 0.0015259323 0.0012968762 0.0007250836 -0.00026683387 -0.00032712417 0.00045008838 0.00012289398 0.000107191976 0.0013736163 -0.0011471936 0.00046823715 -0.0009297372 -0.0013224438 -0.0012729175 0.000152102 -0.001337467 -0.0012094752 -0.00010718511 0.0013752443 0.0013126552 -0.001017406 0.0010268652 -0.0013616779 -0.0009222328 -0.0009873877 0.0010250311 -0.00029843443 0.00051215955 -0.00031128403 0.0012017004 -0.00067249907 0.0010628545 -1.5000638e-05 0.00057027815 -0.0011133812 0.0005092057 0.00092415896 -0.0008580942 0.0007592084 -0.0013276929 0.0008026231 0.0009872145 -0.0007505413 0.0012545541 -0.0014959397 0.00030400752 0.00019202822 -0.00021327671 -0.0012425067 -0.0013346495 0.0015068618 0.00072271813 -0.00041258155 0.0016170626 -0.0009907567 0.0004205911 0.0008193163 0.00093543506 -0.000615574 -0.0010030143 1.1592702e-05 0.0013458367 8.798544e-05 0.001103068 -0.00029968354 -0.0010424183 -0.0003496032 0.00090709596 0.00016271297 -0.0015083706 0.0011012994 0.0011386175 0.00011938752 0.0013183304 -0.00086481107 0.0014546263 -0.0013450978 0.00017284983 -0.0006407797 0.0011649976 -0.0005107369 0.0012748089 5.6192457e-05 0.0002481391 -0.0013867634 0.00060470385 0.0016192017 -0.00012069272 0.0014875949 -0.0003215973 -2.6005751e-05 2.6976739e-05 -0.0011908344 0.0014911069 -0.0006039803 0.00032195557 -0.0010748559 -3.6536465e-05 -0.001341345 -0.00092366565 0.00058766984 0.0008396 0.0010098548 0.0006574237 -0.0013328766 0.00013719869 -0.0010449564 0.0009966106 -0.0016405414 -0.0012507054 0.0011564196 -0.00076669554 0.0014327874 0.0009768603 0.00086870027 -0.0010238469 0.00019298954 -0.0008742774 2.3097496e-06 0.0009009336 -0.0012423657 0.00084095437 -0.001604926 0.0008975807 -0.0012168692 0.0006200377 0.00021255891 -0.0010997093 -0.00082848844 -0.0001440577 -0.0010411149 -0.00074505573 -0.0011313892 -0.0014217577 5.935276e-05 -7.193015e-05 -0.0003854605 -0.0008266428 -0.0005506953 -0.0010298319 0.0003929196 0.00085768395 0.0003128584 -0.0007290009 -0.0015740376 -0.0010816796 0.00043047284 -0.00094361464 0.00093931623 -0.0015513067 8.508784e-05 -0.0007313384 0.0013154044 0.0004381287 0.0009846758 -0.00016961053 0.0011291339 -0.00077495514 8.230322e-05 1.8866534e-05 -0.00016123144 0.00069587363 -0.00085099216 0.0002945436 0.001102223 -0.0014184709 0.0005884179 -0.0008205044 0.00046571472 0.0010313817 -0.00018339258 0.0010080055 0.0010434322 -0.000434156 -0.0014646702 0.0012929776 0.0016277577 0.00075705646 0.0006833533 0.0008728027 -0.00035802892 -0.0008638424 0.0014252566 0.00019519865 0.0012436687 -9.594227e-05 -0.0010889377 0.00084372435 -0.0011076427 -0.0008974971 0.0005773002 0.0005319955 -0.00015901709 -0.00039951294 -0.0015762823 -0.0012517776 -0.0010038554 0.00084606546 -0.0009758844 0.0012702501 -0.0009233378 -0.0012354994 0.000779004 -0.00044544035 0.00075642485 -0.00027417374 -0.00086055667 -0.0001818955 0.00097097433 -0.00015866187 0.0013714067 0.0015677795 -0.0002701845 0.0014749157 0.0014083675 -0.0010791926 0.00045235886 -9.04186e-06 0.0009285068 0.00033697684 -0.0013984761 0.0002989458 -0.00034046287 -0.0011223713 -0.0010102063 0.0005246427 -0.00078544824 0.00077871856 0.0007638896 0.00064058544 0.0013632895 -0.0016348537 -0.0011734922 0.0006672193 -0.0001419499 -0.0010213258 -0.001220069 0.000622355 -0.0013081464 -0.001494371 -0.0013135633 -0.0014774621 0.00064477965 0.00066743075 -0.0015284414 0.001564031 0.0010715411 0.0010327504 -0.0012411652 -0.00032786708 0.00049351115 -0.0011557214 0.0006104408 0.0006114938 0.00034730363 -0.0013455108 0.0016391377 0.00046200777 -0.0015683266 -0.0005816729 0.001483536 -0.00032223272 -0.00044446817 -0.00045404557 -0.00056118483 -0.00022109272 0.0013242931 0.00034109902 -0.0016301351 5.1121584e-05 0.00013217327
看起 0.0016318687 0.0012512243 0.0005302731 0.0007484636 0.00016177498 0.0011776197 0.0012332434 -0.00025161108 -0.0016259457 0.00086346146 0.00072110054 -0.0003601563 -0.001523887 9.324663e-05 0.00044092193 0.0012076463 0.0007954736 0.00071183004 0.00025408872 0.0011479472 0.00086256565 -0.0014211268 -0.0006982676 0.0011910691 0.00055590464 0.00101137 0.0014296727 -0.0015018051 -0.0006527913 0.00021872144 -0.00095556653 0.00012920592 0.0011332642 0.0009282635 -0.000863001 0.00075424527 -0.0005629455 -0.000400547 0.0016664577 0.0011260804 -0.0009658655 0.00013158625 -0.0001610333 -0.0009797021 -0.00015433405 -0.001496779 0.0007676327 -0.0006152128 0.0015146513 0.00033951856 -0.0014502201 0.00024996194 -0.000407054 0.0003844233 -0.0006039358 0.0006343453 -0.0010731153 -0.00044193902 -0.00030402388 0.00014529066 -0.00031429552 0.0011527992 -0.00032238933 -0.0015285966 0.0007317616 -0.0015713283 0.00067082857 0.001474017 0.0007062843 -0.00025721884 0.0015901783 -0.00040214095 0.0012246097 0.0014194554 -0.0009399558 0.00071017904 -0.00042920015 -0.0013707068 6.8147645e-05 -0.00023572457 0.00053311256 -0.0008584107 0.001218619 -0.0005765707 -0.00024094417 -0.0015138227 0.00047527178 0.0009825029 0.0012714602 -0.00015118584 -0.00043733875 0.0004967857 -0.0014484785 0.0012149169 -0.00093486975 0.0014429954 -7.721237e-05 0.00042589547 -0.00084238977 -0.0012686952 0.0004941604 0.0006839276 -0.0016104379 0.0006790172 1.3021493e-05 -0.0009885603 -0.0013718441 -0.0006491397 -0.0010955592 0.00022313926 -0.001000216 0.00038737606 0.0007869757 0.0008821728 -0.0016599935 -0.0014023694 0.00033668824 0.00085014506 -0.0002462685 0.00072196056 4.3936267e-05 -0.00061536115 0.001280634 -0.00040296404 0.001259417 -0.0015832286 -0.0009776059 7.0746144e-05 0.00033542418 -0.001299055 0.0013240154 -0.00046679834 0.00043946033 -0.00054614816 0.0015768947 2.2708338e-05 3.0236004e-05 0.0006532472 -0.0016501246 -0.0016513716 -0.0008438438 0.00071579823 9.8883706e-05 -0.0005526408 0.0010645997 -0.00061961036 0.0007872676 0.0005223446 0.0016090922 0.00019908769 -0.00090098317 -0.0005885744 0.0007956723 -0.0005429855 0.0002196298 0.0016652667 -0.0010887046 0.00011927667 -0.0016610521 -0.0003539745 0.0007467516 0.00095120224 -0.00027929872 -0.0008105595 0.00054410874 0.0012753219 -0.0002522894 -0.000552181 -0.0014602891 0.00023174084 -0.0010435772 0.0013969375 -0.0014265757 -0.00021523345 0.0005375314 -0.0015324019 0.0008483132 0.00028614752 -0.00035483015 0.0005573278 -0.0010764734 0.0010410957 0.0010987624 -0.0003800648 0.00026125918 0.0014591643 0.0015634141 -0.00027422383 7.5758064e-05 0.00076249754 -0.0013793915 0.0016072819 0.00045046513 0.00034576748 -0.00048637736 0.00059611595 -0.0007744619 -0.00027746262 0.00053419464 0.00073669764 0.0012966811 -0.00095758913 0.0001702589 0.00049504195 -0.0007916309 0.0007918624 -0.0014233948 0.00095979474 -0.0008209631 -0.00022288406 -0.00025783587 -0.0005833877 -0.0014286196 0.0015122598 -0.0014649006 0.0010134919 0.00056051527 -0.0009466708 -0.0016617972 0.0016522616 -0.00036639147 5.110042e-05 -0.0006636694 -0.00030567677 -0.0006795088 -0.001327333 0.0012124537 0.0013515761 -0.0015849589 0.0009878258 0.0006264496 -0.00037815218 0.00047683844 0.00057229097 0.0014874078 8.237171e-05 0.0010014814 0.0002415208 -0.0007677939 -0.0004524169 -0.00031979667 -0.0014268394 -0.0015813878 -0.0013792465 -0.0015600917 0.00073493284 0.0013452627 0.0012069867 0.0012625583 0.0015457658 0.0013631465 -0.001249273 0.0013617217 0.0010987074 -0.0015398804 0.0015047224 0.0008650673 0.001536051 -0.0002630391 0.00062299456 0.0003027105 0.0003319331 0.0010979989 -0.00069234153 0.0010707604 -0.00068293896 -0.0013683998 -0.0010876328 -0.0006410592 0.00041028863 -0.0008354573 0.0006134712 -0.00071285636 0.000902072 -0.0009916904 -0.00049091293 -0.00023812332 0.0011106818 8.497357e-05 -0.0006684341 -0.0015255304 -0.001543303 0.0003824805 -0.0016316904 0.00070188055 -0.00071944547 0.00049614697 -0.0016414399 0.00020886403 -0.0008488009 0.00022475244 0.0011221188 0.0006162256 0.001123749 -0.0001013457 -0.0003294008 0.000106855034 -0.0009364552 -0.0014513017 0.0014555486
谢谢前面提醒空降时间的同学，陈老师的战略才是对的，我终于见到了一个真正厉害的战略了，我们不要跟美国谈协议，而是省与州之间谈协议，对美国分而治之，对其他西方国家我们也要用这个战略，用他们的贫富分化再加速他们的内部分化，而且刚好美国的粮仓州，科技州基本对中国市场都是依赖互补的，本身就有亲中本能，妙阿[吃瓜-圣诞] 0.0013783262 -0.0011295686 -0.0012965336 0.0004143291 -0.00014071199 0.00016093272 0.0014878265 5.4829605e-05 0.00040963216 1.2269134e-06 0.0011673084 -0.001633177 0.0010769535 0.0011855093 0.0010860959 -0.00084365526 0.0007719042 -0.0011775844 -6.935776e-05 0.00043703045 0.0005508942 -0.0012746383 -0.00030210303 0.00056352647 -0.00074155314 -0.0003011486 0.0013114604 0.0005136648 -0.0004460027 -0.0006553454 -0.00053008465 -0.00042341815 -0.00011036728 -0.000312714 -0.0015497433 -0.0010890483 7.631566e-05 0.00057341234 -0.00020894052 -0.001487633 0.001396562 2.5741483e-05 -0.00093198207 0.0013617924 -0.00023500453 -0.0010352039 0.0011878036 0.0013218469 0.00014246636 -0.00106342 -0.0013254293 0.0011021983 -0.00096971856 -0.0007036886 1.8475788e-05 -0.0013917362 0.0014601784 0.0015453441 5.640896e-05 -0.0015108748 0.00046332792 0.0015665785 -0.0010458162 -5.8064255e-05 -0.0013051496 0.00019078147 0.0009174187 -0.00015077746 0.00073047203 -0.001262569 -0.0010587823 0.0016528848 0.0015843034 -0.0011555412 -0.00020060707 0.0014676703 0.0009716874 0.0016358705 0.00028079908 -0.00014573318 0.001500013 0.0012514762 -0.00078167144 0.0011251654 0.00097341364 0.0010800636 -0.0009245651 -0.00047599775 0.0003291061 -0.0009260348 0.0015245001 -0.0010557426 1.900269e-05 -0.0005557315 -0.0012411459 -0.00059168576 -1.94091e-05 0.0014758582 0.0015446253 -0.00061170873 -0.001457094 -0.0005700665 0.0006271041 0.0016546601 -0.0013943433 -0.0014384836 -0.001408921 -0.0015989571 0.0010430242 0.0006211239 -0.0004916299 0.001188908 0.001474094 -0.0015153085 0.0016231263 0.0011867632 0.0005554268 0.00010972484 0.0015025857 -0.0009488404 0.0014578531 -0.0012808939 -0.00034317194 -0.0014455377 -0.00023419473 0.0005393689 0.001266924 0.0013380976 -0.0008636636 0.00074266386 -0.0013261805 -0.00010769131 0.0003135677 -0.0008562711 0.0009844747 -0.0015482134 -0.0008256357 -0.00030405636 -0.0016454586 0.00079151266 0.0009408338 -0.0007782093 -0.00053414924 0.0016207808 -0.0003281672 -0.0002795969 -0.0011680594 -0.001653635 0.0014422119 0.0009454363 0.00016591031 0.00019260905 -0.001105191 0.0011444571 0.0011785552 0.0010668192 0.0011359701 0.0004767906 0.0015130712 0.000793571 0.0011702023 -0.0007983649 0.0010848753 0.0011176681 -0.0012250583 -0.0013672141 -0.00040842342 0.0014356186 -0.0015303687 0.00091168383 -0.0008370694 -0.00024923307 0.0008124913 0.00042951823 -0.0015821968 0.0014049379 -0.0005303051 -0.00022854313 -0.0005868843 -0.0015857711 -0.0015931722 0.0008939961 0.00025237075 -0.0011792239 0.00011371638 0.0010249433 0.00065457274 -0.0010306402 -0.0011374718 0.0009562719 -0.0014201851 0.0011111145 -0.00080486777 -0.00020172236 0.0007514663 -0.00071925065 -0.0010950026 -0.00022236709 0.0013308029 0.0002714471 -0.0015534085 0.0015231831 -0.0016187776 -0.00020469619 0.00087766215 0.0012233674 0.0009144801 0.0011538345 -0.0016565655 -0.00016962466 -0.0005468835 -0.0014403092 0.00094383565 0.00022199623 0.0005772449 -0.0002998457 0.000397743 0.0016102726 0.0015651712 -0.0011593483 0.0005220717 -0.0012791568 0.00015730866 -0.00090184837 0.00081600784 -0.00014149005 0.0010291266 0.0011461356 0.0011996935 -0.0010669022 0.00092569896 -5.615271e-05 0.00092549535 0.0008292218 -0.00018002713 -0.0010592566 0.0014059648 -0.0004289468 0.00079639937 0.00029815914 -0.0014678746 0.00038313674 0.0005456788 -0.0012381226 -0.0013475633 -0.0003055211 -0.00048484528 -0.0009070087 -0.0010943825 0.0004880621 0.0015909611 0.0002951846 6.917064e-05 0.0006370274 0.0010460649 0.0004629463 -0.0006216556 -0.00026702532 -0.00054828776 0.0005632811 0.00034910292 0.00030364058 0.0011077797 0.0011856125 -0.0006162259 -0.0008930181 0.0009407507 0.00024274075 0.00065044966 0.0013134575 0.00070712937 0.0013641263 -0.000994637 -0.00081517146 -6.8028535e-06 -0.0009043292 -0.0005331766 -6.966603e-05 -0.0008911878 -0.0014140846 0.0005627056 0.0003382525 0.00051119627 -0.00066993985 -0.00024892026 -0.0001282025 -0.00013429459 3.382398e-05 0.00023270478 0.0012182612 0.0006146588 0.0010671258 -1.3724881e-06 0.0002662519 -0.0014516847 0.0008522399 -0.00041191035 -0.0002551446 -0.00011948179 0.0008980868
陈老师厉害[支持] -0.0006071759 0.00062497304 0.0004677341 0.00022109214 0.00029235613 0.001304502 0.00051430456 -0.0007108071 0.0016595399 0.0014712199 -0.0012834731 -0.00018763026 -9.5307905e-06 0.0006496936 -0.0008291478 0.00051687646 7.437857e-06 -0.0012436693 0.0008115161 -0.00042980604 -0.00070010964 0.0004507541 0.0010347314 0.000167269 0.0010194164 0.0005236096 -0.0016031858 -0.0011878149 0.0008511742 0.00030618903 0.00021304969 -0.0011698259 0.0009161492 -0.00039006077 -0.00044550866 -0.0013585353 -0.00022000524 -0.00022554302 -0.000160656 0.0016644028 0.0008727607 -0.00010884407 0.0014926677 -0.000446689 4.3819517e-05 -0.0010178535 -0.0013024232 0.0012531389 -0.00064358156 -0.0015899482 0.00080032746 -0.0007214702 -0.0006271195 -0.00081620214 -4.7492158e-05 0.0016246054 0.0015123155 0.0009699519 0.00080507336 -0.0005860574 -0.0013317968 0.0013126914 -0.0016170125 -0.0010378442 -0.000476548 0.0002987159 -9.35244e-06 0.0010518733 0.00023972586 0.0010100917 -0.0012919799 -0.00074610225 -0.00066806393 0.0003002028 -0.00040770223 -0.00077282346 0.0015867045 -0.0006081522 0.00013424717 0.0011107447 0.0011063048 -0.0014504544 -0.0014678546 0.00047817774 0.0014789763 -0.00029489133 0.00070689374 -6.5707885e-05 -8.014324e-05 0.00029887637 -0.0011633617 0.0014917674 -0.0007954312 0.0009946546 0.0015863654 -0.0006865405 -0.0013976624 -0.0015070487 0.00013034999 -0.0011852442 0.0016574265 0.0013564001 -0.00091463316 0.0010841482 0.0013286035 -0.0008017234 0.0005290332 0.0013227339 -0.00089657295 0.0009927587 0.00017207582 0.0012479192 -0.00020969336 -0.0013391558 -0.0003841677 -1.6704833e-05 1.0972214e-05 0.0005718158 0.00057715026 1.1959919e-05 0.0016394671 0.0015013422 0.0012897481 -0.00018232674 6.668813e-05 -0.0008393708 -8.652053e-05 -0.0007131984 0.0003145102 0.0013796802 -0.0011659034 -0.0011254213 -0.0015824777 -0.00048034775 -0.0015833174 -0.0015140186 0.00070653454 0.0013354431 -0.00028174318 0.0010118748 -0.00016215847 -0.0007867478 -0.0011904342 -6.1431138e-06 -0.0013978672 -8.2725455e-06 0.00021013501 -0.0016463738 -0.0014853437 0.00040763017 0.00068200467 0.0015587596 0.0008127926 -0.0002594517 -0.0004220251 0.0010193932 0.00047318297 0.0011953984 0.00017062001 -0.00084475416 -0.0009062779 0.00054090575 -0.0009146756 -0.0003812716 0.0014233083 -0.0015722772 -0.0014553011 0.00083284994 -0.0003890431 -0.0008877206 -0.0005827809 0.00046639427 -0.001126077 6.1314066e-05 0.0011522657 0.00045715386 0.00018818982 -0.0007607506 -0.0011687528 -0.00027909118 0.0015821579 0.00087412505 0.000990134 0.0013343609 -0.0015529301 0.0016463432 0.0015415443 0.00042058274 -0.00089403766 0.0006427471 -0.00036248754 -0.0015742602 -0.0010174087 -0.00071490067 0.0004036149 -0.00071950856 -0.0011195228 0.0013817374 0.0005066514 -0.00047844372 0.00023615625 0.0012663739 0.0015358251 -0.0012989081 1.9676243e-05 -0.00069694925 -0.00092028244 -0.00010882314 0.00050379557 -0.0014754143 -0.00090523023 0.0010276057 0.0005537285 0.0015548966 -0.0006665259 -0.0005418665 -0.00014821126 0.00025067406 0.0010272289 -0.001564138 6.131093e-05 -0.00011065789 -0.0011214361 0.00052681816 -0.000114945426 0.0009809323 0.0015568899 0.0002610916 -0.00057593477 0.0016058917 0.0012558214 0.0002433525 -0.0006499279 0.00026303742 0.00038326014 -0.0010612174 0.00012448292 -0.00093913 -0.0010717283 0.00034902836 -0.0011853542 0.000791336 0.0011859032 0.00049795257 0.00013713005 -0.0013544468 -0.0002608048 -0.00050717074 0.0016363433 -8.610158e-05 0.00021670881 0.0009996414 0.00014486627 3.0651805e-05 -0.0011964174 -0.00032782517 0.0007674642 -0.0011777749 0.0005872789 -0.00038433255 -0.0011626183 0.0010873472 0.00080568285 -0.00095906004 -0.00048945245 -0.001611209 0.0008568701 0.0010533745 0.00033419608 -0.0013851246 -0.00034057244 0.00030109694 -0.00025123556 0.0008529339 0.00036771473 0.00045603878 -0.0011836817 -0.00051532156 0.0013232995 -0.00077751046 0.00010817642 -0.0013812607 -0.0015006969 0.00042604876 -0.00054412824 -0.0009798949 0.00016084839 0.0002109705 -0.0006425332 -0.0014194932 0.0014982792 -0.0015479521 0.00037604073 -0.0015651075 0.00061002164 -0.00033888337 0.0010800334 0.0012469278 0.00041763717 -0.0010600351
